{"encoder.layer.0.attention.self.query.weight": [[-0.05550384148955345, -0.006543154362589121, -0.06660290062427521, -0.02204274944961071, 0.030944788828492165, 0.023716123774647713, 0.05239721015095711, -0.057854123413562775, -0.020867807790637016, -0.14079582691192627, 0.05474996194243431, 0.04996902868151665, -0.0725090354681015, 0.059803783893585205, -0.11848725378513336, -0.031554266810417175, -0.02737800031900406, 0.04729491099715233, 0.020570313557982445, 0.02318081632256508, -0.0010114889591932297, -0.06843753159046173, -0.06630346179008484, -0.009625053033232689, -0.18373805284500122, -0.06921946257352829, -0.06264951825141907, 0.07858680188655853, -0.07210485637187958, -0.025939902290701866, -0.008091481402516365, 0.024868981912732124, -0.08796223998069763, 0.060709692537784576, 0.04460832476615906, -0.10560794174671173, 0.08902624994516373, 0.08514245599508286, -0.048952411860227585, 0.0016697703395038843, -0.018722394481301308, -0.039813775569200516, -0.011591186746954918, 0.007569009903818369, -0.04942170903086662, 0.0801839679479599, 0.06990424543619156, 0.015094796195626259, -0.13708184659481049, -0.054788071662187576, 0.07997289299964905, 0.0401635617017746, 0.04647732898592949, 0.07559635490179062, 0.032910190522670746, -0.07390907406806946, 0.041484832763671875, 0.15712952613830566, 0.02207927405834198, 0.014650526456534863, -0.06631483137607574, 0.033516038209199905, -0.1286805123090744, -0.1553933173418045, -0.04359746724367142, 0.03373633325099945, -0.057332593947649, -0.2664357125759125, -0.19675052165985107, -0.04846913740038872, -0.11031530052423477, -0.1336892992258072, -0.033198244869709015, -0.04526949301362038, 0.08533263206481934, 0.03353487700223923, 0.12216345965862274, -0.05385534465312958, 0.04748627543449402, 0.00968744233250618, 0.012223499827086926, 0.06559747457504272, 0.033007752150297165, 0.052521463483572006, 0.050292693078517914, 0.06719475984573364, 0.008290951140224934, -0.015031362883746624, 0.02328161709010601, -0.06758128106594086, 0.05596897751092911, -0.0066514392383396626, -0.07948678731918335, 0.026714371517300606, 0.0877864807844162, -0.019570061936974525, 0.051554080098867416, 0.025542885065078735, 0.05105247348546982, -0.028900712728500366, 0.03150942921638489, 0.05648806318640709, 0.029171427711844444, 0.15447092056274414, 0.06446269154548645, -0.16694271564483643, -0.12157987803220749, 0.10908239334821701, -0.08381196856498718, 0.05909162759780884, 0.06047346070408821, -0.04901136830449104, 0.013334408402442932, 0.1141202300786972, 0.06428363174200058, -0.047151315957307816, 0.14902454614639282, -0.07951193302869797, -0.05199727788567543, 0.09127693623304367, -0.03031524084508419, 0.011291801929473877, 0.09846024960279465, 0.10466761142015457, -0.03468873351812363, 0.09375953674316406, 0.2272915244102478, -0.05745391920208931], [0.012099205516278744, -0.14126938581466675, -0.030532585456967354, -0.027133360505104065, -0.1755162477493286, 0.0017293505370616913, 0.00020909869635943323, 0.003159279702231288, 0.015815963968634605, -0.07638795673847198, -0.04388120397925377, 0.029119160026311874, -0.02457933872938156, 0.05661121755838394, -0.03154556080698967, -0.01485356129705906, -0.049207255244255066, 0.18059787154197693, -0.09833444654941559, 0.046833768486976624, -0.025283019989728928, -0.06769048422574997, 0.09315194934606552, -0.01246621087193489, -0.0633356049656868, 0.09855463355779648, -0.021802905946969986, 0.15794910490512848, -0.08816179633140564, 0.00218107714317739, -0.005227719899266958, -0.008503109216690063, 0.10968140512704849, 0.04924320802092552, -0.05360765382647514, 0.0242930818349123, 0.08079981058835983, 0.0062601687386631966, 0.03934973105788231, 0.08836933225393295, 0.08295326679944992, 0.1718912571668625, 0.013159031048417091, -0.09203998744487762, 0.031739912927150726, 0.006913797929883003, 0.09593696147203445, 0.031099390238523483, -0.010936738923192024, 0.08624394983053207, 0.006137103773653507, 0.02445627562701702, -0.1688547134399414, 0.11591126024723053, -0.06956660002470016, -0.01759720779955387, -0.2556736469268799, -0.07016890496015549, -0.009491986595094204, 0.07335799932479858, 0.07016580551862717, -0.021205585449934006, -0.06127920001745224, 0.03258789703249931, -0.016809659078717232, -0.16232836246490479, 0.02110169269144535, 0.13382522761821747, 0.029051940888166428, -0.015278352424502373, 0.165289968252182, -0.06476122885942459, 0.11927630752325058, -0.03949146717786789, 0.011680799536406994, -0.07556670904159546, 0.07279118150472641, -0.139108344912529, 0.010098034515976906, 0.027607019990682602, 0.021237578243017197, 0.10719039291143417, -0.008428988046944141, 0.0375632680952549, -0.07520122826099396, 0.05607438459992409, -0.0775563195347786, -0.05926045775413513, -0.1352173089981079, -0.01749458536505699, -0.056636229157447815, -0.009438024833798409, 0.0973152294754982, 0.021741652861237526, 0.14812180399894714, 0.02167058177292347, 0.09073667228221893, -0.09047994762659073, 0.019534431397914886, -0.09774035215377808, -0.14274898171424866, 0.20280633866786957, -0.07251401245594025, -0.027360063046216965, -0.06285550445318222, -0.017406387254595757, -0.1808609962463379, -0.20496177673339844, -0.033534370362758636, -0.10574813187122345, 0.029239876195788383, 0.021409034729003906, -0.024711813777685165, -0.12691828608512878, 0.1234324723482132, -0.01307179220020771, 0.09325945377349854, -0.01654083840548992, -0.0693306252360344, 0.026612570509314537, 0.032474879175424576, 0.0035858151968568563, 0.06898124516010284, -0.06939691305160522, 0.035311050713062286, 0.032140057533979416, -0.014498710632324219, 0.058797068893909454], [-0.008531141094863415, -0.14880122244358063, 0.02031397446990013, -0.05104488134384155, 0.08727426081895828, 0.05464368313550949, 0.2208651900291443, -0.023553093895316124, -0.057686273008584976, 0.0011616948759183288, 0.13912513852119446, -0.10523369163274765, 0.061055269092321396, -0.08537846058607101, -0.0044850981794297695, 0.055387865751981735, -0.02745126001536846, 0.07463162392377853, -0.09363258630037308, -0.13881643116474152, 0.015953199937939644, 0.16018982231616974, -0.01724429987370968, -0.024364694952964783, -0.016093647107481956, -0.04272244870662689, 0.013579480350017548, -0.07736138999462128, 0.06296522170305252, -0.06314444541931152, -0.08685677498579025, 0.04556039348244667, 0.04489259049296379, -0.11035565286874771, -0.004683973733335733, -0.044788163155317307, -0.12036391347646713, -0.05887078866362572, -0.11430930346250534, 0.050254419445991516, 0.11994178593158722, -0.10738038271665573, 0.08379878103733063, 0.027734922245144844, 0.011242209933698177, 0.08964706212282181, -0.09512722492218018, -0.035593077540397644, 0.14253412187099457, -0.0004644499276764691, 0.00557065149769187, -0.10890169441699982, -0.14189483225345612, 0.10590265691280365, 0.09458024799823761, -0.07113318890333176, -0.007776109967380762, 0.08073101192712784, 0.03431567922234535, 0.0337463803589344, -0.08085683733224869, 0.020612899214029312, -0.05670398473739624, -0.11087319254875183, 0.04804925620555878, 0.04043971747159958, 0.11438003927469254, 0.03898780792951584, 0.04972102493047714, -0.12096220254898071, 0.00927833840250969, -0.04080015793442726, -0.04055140167474747, -0.00836818665266037, 0.08912663161754608, -0.09485605359077454, -0.008396063931286335, 0.01008926797658205, -0.03601184859871864, -0.029418224468827248, -0.08301372826099396, -0.016249096021056175, -0.10627858340740204, 0.04028933495283127, -0.019214047119021416, 0.03573554754257202, 0.07963070273399353, -0.16792041063308716, -0.08031032979488373, 0.1233520433306694, -0.020865486934781075, 0.06892996281385422, -0.026619093492627144, 0.10337826609611511, -0.0011385343968868256, -0.006804727949202061, -0.0066244155168533325, -0.003910948988050222, 0.007156467996537685, 0.012059329077601433, 0.023071840405464172, -0.03234582394361496, -0.02506408840417862, 0.02516663633286953, -0.021122083067893982, 0.049454085528850555, 0.017254861071705818, -0.07514969259500504, -0.06692256033420563, 0.05548793077468872, 0.0014063548296689987, 0.02041066810488701, 0.07033170759677887, 0.004320943262428045, -0.003845552448183298, -0.0519246943295002, 0.012951663695275784, -0.08045677840709686, -0.11782176047563553, 0.027908919379115105, -0.028747456148266792, -0.04707973450422287, -0.018976544961333275, -0.03203800320625305, 0.08967402577400208, 0.018400918692350388, 0.13472680747509003, 0.10085411369800568], [-0.019300643354654312, 0.04383702948689461, 0.08358080685138702, 0.002865947550162673, -0.10318174213171005, -0.06349807232618332, 0.22045134007930756, 0.08116291463375092, 0.0033080445136874914, -0.15972836315631866, 0.05546525865793228, -0.08555570989847183, 0.02501971647143364, -0.08101595193147659, 0.08209538459777832, 0.11158667504787445, 0.16145850718021393, -0.03694438934326172, 0.10713385790586472, 0.05553155764937401, 0.01920144259929657, -0.08370266854763031, 0.11557361483573914, 0.03770028427243233, -0.10468149185180664, 0.07501256465911865, 0.01657162792980671, 0.07315823435783386, 0.09793225675821304, -0.19803377985954285, -0.027088871225714684, -0.041664306074380875, -0.12366132438182831, -0.0323321670293808, 0.07715519517660141, -0.009823590517044067, 0.1298990249633789, -0.02286308817565441, -0.04043595865368843, -0.05464693903923035, 0.05585207790136337, 0.028899841010570526, -0.0385223850607872, -0.03527448698878288, 0.06582234054803848, 0.027903923764824867, 0.06256593018770218, 0.011076848022639751, 0.029173899441957474, -0.10716745257377625, 0.03680511564016342, -0.13574407994747162, 0.02636733651161194, 0.04352687671780586, -0.13380149006843567, -0.019402774050831795, -0.006665063090622425, 0.0007396502769552171, 0.0750601589679718, 0.0861525908112526, -0.06354168802499771, -0.0037002370227128267, -0.012092024087905884, -0.008668286725878716, -0.0444100983440876, -0.03505528345704079, -0.08474405109882355, -0.10993101447820663, 0.14407487213611603, -0.03646165877580643, -0.06639444828033447, 0.01796022243797779, 0.13137055933475494, 0.05502082780003548, 0.001093770028091967, -0.04287028685212135, -0.1270483434200287, -0.14637675881385803, 0.08183532953262329, -0.03597128763794899, 0.13166695833206177, -0.013783122412860394, 0.09836900979280472, -0.05032028630375862, 0.1146697849035263, 0.04211648553609848, -0.07619748264551163, 0.1303764283657074, 0.03941880911588669, -0.036025624722242355, 0.0040809824131429195, 0.10483616590499878, 0.01949075423181057, 0.012852942571043968, -0.08405087143182755, 0.028545308858156204, -0.0823366567492485, 0.06500449776649475, -0.014035067521035671, -0.04357598349452019, -0.08435069024562836, 0.07228954136371613, 0.1231718584895134, -0.03466380760073662, 0.0041522555984556675, 0.06280814856290817, 0.02045152708888054, -0.002361732069402933, 0.005433620419353247, 0.1037597805261612, 0.0484771765768528, -0.07010026276111603, -0.027031878009438515, -0.1133042424917221, 0.007714048959314823, 0.020143350586295128, -0.04621108993887901, 0.004297588020563126, -0.0647578313946724, -0.018185244873166084, 0.10751215368509293, -0.03486067056655884, -0.044450543820858, -0.055443719029426575, 0.1295916885137558, -0.04893476888537407, -0.01411434542387724, -0.1295054703950882], [0.04345368593931198, -0.15180310606956482, -0.007964422926306725, 0.04218362271785736, 0.02038946934044361, -0.028082454577088356, 0.0365946888923645, -0.04389667510986328, -0.056414686143398285, -0.03188358619809151, -0.0376153290271759, 0.0033303999807685614, 0.03939168527722359, -0.031068559736013412, -0.02596197836101055, -0.03517889976501465, 0.0023790078703314066, 0.021150337532162666, -0.004663103260099888, -0.11471633613109589, -0.11015988886356354, 0.11174308508634567, 0.08006712794303894, -0.09879927337169647, -0.023326890543103218, -0.04788898676633835, 0.06498014181852341, -0.01970909722149372, 0.12574666738510132, 0.05964485555887222, 0.06640784442424774, 0.027269640937447548, 0.11555809527635574, 0.14843855798244476, 0.09487058222293854, 0.0875161737203598, -0.10538292676210403, 0.06412307173013687, -0.049591854214668274, 0.11775609850883484, 0.16596125066280365, 0.04678480699658394, -0.0879499539732933, 0.034712739288806915, -0.09131866693496704, 0.07945282757282257, 0.04502641782164574, -0.22466322779655457, -0.07141650468111038, 0.08508305996656418, -0.027710644528269768, -0.05431314930319786, -0.011539057828485966, 0.018642419949173927, -0.04201073944568634, -0.03565344214439392, -0.1462337076663971, 0.003661272581666708, 0.02012864500284195, 0.012577785179018974, -0.06105481833219528, -0.08277270197868347, 0.06248627230525017, 0.03642921522259712, -0.000703885336406529, 0.12412843853235245, -0.1977808028459549, -0.003967518452554941, -0.09726928919553757, 0.09857349842786789, -0.11284906417131424, 0.035923052579164505, 0.017961522564291954, -0.07288471609354019, 0.17477600276470184, -0.0478639230132103, -0.1125241294503212, 0.0013193971244618297, 0.13737152516841888, -0.12786103785037994, 0.06559044867753983, 0.15474611520767212, 0.009969567880034447, 0.05811116844415665, 0.004957640543580055, 0.004791722167283297, 0.07515403628349304, 0.0015860230196267366, 0.06682638823986053, 0.07254606485366821, -0.08237726986408234, -0.052859995514154434, 0.11094944924116135, 0.0851685106754303, -0.020332802087068558, -0.08419066667556763, 0.0731223076581955, 0.06329338252544403, -0.0619337260723114, -0.056592535227537155, 0.10577483475208282, -0.13761959969997406, -0.02771618589758873, -0.05414653941988945, -0.0217598807066679, 0.0658627524971962, -0.18543215095996857, 0.09364583343267441, 0.06759054958820343, -0.01976548321545124, -0.02660220116376877, -0.03255338966846466, 0.06669547408819199, -0.03748895227909088, -0.10788668692111969, 0.0434921458363533, -0.06408246606588364, 0.13397681713104248, 0.020402776077389717, -0.03593821078538895, -0.12013524025678635, 0.04640023410320282, -0.05442582443356514, -0.03223147988319397, -0.024141401052474976, -0.003659890964627266, 0.015048453584313393, -0.07669272273778915], [0.05542878434062004, -0.025522887706756592, 0.00717603974044323, -0.06787886470556259, -0.00643470324575901, -0.00013832627155352384, -0.007780140731483698, 0.2347392737865448, -0.005662518087774515, -0.10555626451969147, -0.025089310482144356, 0.1446838229894638, 0.16054023802280426, 0.07821165770292282, 0.05120987817645073, -0.04443098604679108, 0.04576616361737251, 0.0042442562989890575, 0.12766511738300323, -0.01768699660897255, -0.05282529070973396, -0.1287202686071396, 0.031233610585331917, -0.013130228966474533, 0.06667949259281158, -0.10648069530725479, -0.16043207049369812, -0.07290202379226685, -0.07248711585998535, 0.09123252332210541, 0.056373875588178635, 0.09757966548204422, 0.03558434173464775, 0.032171525061130524, -0.037633784115314484, 0.023512715473771095, -0.07482732087373734, 0.0811367779970169, -0.0459425151348114, -0.016912929713726044, -0.09869948774576187, -0.049234870821237564, 0.06119304150342941, 0.008121322840452194, -0.05147954076528549, 0.0330045223236084, 0.024251708760857582, 0.027842439711093903, 0.10716959089040756, 0.040113020688295364, -0.09635281562805176, 0.015273954719305038, -0.05198073014616966, 0.06855766475200653, -0.04021088033914566, 0.09908635914325714, 0.010069620795547962, 0.06662813574075699, 0.03332887217402458, 0.07052547484636307, 0.0854422003030777, 0.0397544801235199, -0.043802086263895035, -0.010063160210847855, -0.00802427064627409, 0.011485518887639046, -0.030381545424461365, -0.024432318285107613, -0.0011045039864256978, -0.08249781280755997, -0.19288167357444763, 0.10473159700632095, -0.008338858373463154, 0.06190833821892738, 0.07933638989925385, 0.05002628266811371, -0.27496087551116943, -0.03848809003829956, 0.01016169972717762, -0.04946611076593399, -0.11592856794595718, -0.10209985077381134, 0.003683957038447261, -0.0633612796664238, -0.12562397122383118, -0.009671666659414768, 0.07927960157394409, 0.0662950798869133, 0.10314714163541794, -0.010891416110098362, 0.0374169796705246, -0.07124261558055878, 0.0947842076420784, -0.09960249811410904, 0.02842741832137108, -0.07744556665420532, 0.13843588531017303, 0.0705769881606102, 0.03903957083821297, -0.030912812799215317, -0.09445449709892273, -0.03150273486971855, -0.009726865217089653, 0.07426247000694275, 0.08269363641738892, -0.08032722771167755, 0.0034238328225910664, -0.022757988423109055, 0.020430035889148712, -0.07461295276880264, 0.051904644817113876, 0.021681224927306175, 0.04010986164212227, 0.02137002721428871, -0.034801993519067764, -0.06269330531358719, -0.11483996361494064, 0.11974642425775528, -0.16065792739391327, 0.06932337582111359, -0.09953705966472626, 0.09497484564781189, -0.042943015694618225, -0.0008586998446844518, -0.012353187426924706, 0.035429347306489944, 0.04107125476002693, 0.08081825077533722], [0.029344433918595314, 0.06811851263046265, -0.05859877169132233, 0.08062492311000824, -0.01986599713563919, -0.0688600018620491, -0.009875812567770481, -0.043129872530698776, -0.0431310273706913, 0.09057142585515976, -0.08406373858451843, -0.148762509226799, 0.09346480667591095, -0.005026848521083593, -0.015076978132128716, 0.11752203106880188, 0.020099857822060585, 0.13854902982711792, 0.04421025887131691, -0.025650564581155777, -0.0853286013007164, -0.017964154481887817, -0.015358553268015385, -0.14647291600704193, 0.013685937970876694, 0.14921751618385315, -0.04478653520345688, 0.005805015563964844, -0.05230826139450073, 0.002520474838092923, 0.03573530167341232, 0.014995296485722065, -0.0938447043299675, -0.04612680897116661, -0.041683465242385864, 0.2459375411272049, 0.02876572497189045, -0.06445223838090897, -0.06384886801242828, 0.1989092081785202, 0.10490814596414566, -0.1146472692489624, -0.10373864322900772, -0.08462955057621002, 0.09619852900505066, 0.0373496487736702, -0.002661567647010088, 0.09774899482727051, 0.14267590641975403, -0.08971501141786575, 0.10494793951511383, 0.018610544502735138, -0.019212862476706505, 0.0598408468067646, -0.03441070392727852, -0.0035580226685851812, -0.08699845522642136, -0.03942970931529999, 0.04994157701730728, 0.11125741899013519, -0.06954752653837204, 0.04996397718787193, -0.0010858807945623994, 0.05897316709160805, -0.01846166141331196, 0.24451082944869995, 0.0197455957531929, 0.015125907957553864, 0.1034240648150444, -0.08350639790296555, -0.022702820599079132, -0.006882545072585344, -0.11713074892759323, 0.05401381850242615, -0.0903671532869339, -0.00017457245849072933, 0.01802406832575798, 0.12195523083209991, 0.16098135709762573, 0.013121823780238628, 0.041722215712070465, 0.06410232931375504, 0.009816897101700306, 0.09148827195167542, -0.08095332980155945, 0.10762522369623184, -0.03881596028804779, -0.12919960916042328, 0.03992047905921936, -0.07204759120941162, 0.019755203276872635, -0.005477254278957844, -0.07449416071176529, -0.1169314831495285, 0.04713243991136551, -0.0957954153418541, 0.11461562663316727, -0.0018593239365145564, 0.04272915795445442, 0.03977935388684273, -0.010393067263066769, -0.15100958943367004, -0.053863901644945145, -0.21819297969341278, -0.004972503520548344, -0.08549574762582779, 0.05731553956866264, 0.013908889144659042, 0.060229118913412094, -0.012286972254514694, 0.07951773703098297, -0.011343814432621002, -0.11862831562757492, 0.06749896705150604, -0.02125987596809864, 0.03449265658855438, -0.036565106362104416, -0.02797611430287361, 0.039434317499399185, 0.06874465942382812, -0.03533416986465454, 0.026652032509446144, 0.19401109218597412, 0.028128433972597122, 0.23021051287651062, -0.008574523963034153, 0.08509866893291473, -0.08222880214452744], [-0.10154876857995987, -0.023462850600481033, -0.06298169493675232, -0.004204428754746914, 0.008101453073322773, 0.03057725913822651, 0.018625380471348763, -0.10595392435789108, 0.01902116648852825, 0.019903337582945824, 0.0333297997713089, 0.0036475525703281164, -0.048147961497306824, 0.019568970426917076, -0.026780618354678154, -0.018464095890522003, 0.07146269828081131, 0.03723848611116409, -0.105674609541893, 0.08683869987726212, -0.15508723258972168, 0.0863647311925888, -0.07555630803108215, 0.08451075106859207, 0.05965088680386543, -0.1094902753829956, 0.13447695970535278, -0.03908852860331535, -0.028817687183618546, -0.07959974557161331, 0.10864555835723877, 0.05009401962161064, -0.08300857245922089, 0.1452128142118454, 0.10590847581624985, -0.08354093134403229, -0.02936253510415554, 0.053053583949804306, -0.11519468575716019, 0.014820278622210026, -0.035629041492938995, -0.20087523758411407, 0.028883911669254303, -0.08029721677303314, -0.053586170077323914, 0.04208628460764885, -0.005148954223841429, -0.007072955835610628, -0.022792575880885124, 0.14289364218711853, -0.06412751227617264, -0.12633845210075378, -0.010846943594515324, 0.08659166097640991, 0.06627610325813293, 0.013151684775948524, -0.017287470400333405, 0.09619510173797607, 0.10239984840154648, -0.019150737673044205, 0.13453491032123566, 0.02393476851284504, 0.13043294847011566, -0.14236511290073395, -0.03573102504014969, -0.010958869010210037, 0.1305237114429474, 0.033627722412347794, -0.004921638406813145, 0.16653642058372498, 0.11035081744194031, -0.17214350402355194, 0.06332580745220184, 0.09927109628915787, 0.11165980249643326, 0.0602312833070755, -0.026057755574584007, -0.10322610288858414, 0.20682811737060547, 0.00983381550759077, 0.07395848631858826, 0.04233807325363159, 0.012681519612669945, 0.005377491004765034, 0.04887327924370766, -0.018883557990193367, 0.04518385976552963, -0.03981739282608032, -0.011825869791209698, 0.040465280413627625, 0.05897313356399536, -0.026559779420495033, 0.01264397893100977, 0.018937788903713226, -0.0672699436545372, -0.07803050428628922, -0.19545632600784302, -0.15467897057533264, -0.05840102583169937, -0.002933098701760173, -0.010562281124293804, -0.10936371237039566, -0.048114679753780365, 0.01815066859126091, 0.02756466343998909, -0.1338409036397934, 0.06858869642019272, 0.11797340959310532, -0.07589300721883774, -0.02356662228703499, 0.02521064132452011, 0.039211470633745193, -0.04494379833340645, 0.050683844834566116, 0.11553797870874405, -0.009465633891522884, -0.08579003810882568, 0.14370127022266388, -0.13071182370185852, -0.14918120205402374, -0.020238397642970085, 0.03831147402524948, 0.04553913325071335, 0.0012869755737483501, -0.0002953695657197386, 0.09725125133991241, -0.15717729926109314, -0.1231134757399559], [-0.07228437066078186, 0.0738852322101593, -0.0633833184838295, -0.09349493682384491, 0.026183752343058586, -0.16606175899505615, -0.09622689336538315, 0.09457055479288101, -0.08029959350824356, 0.13479676842689514, 0.010181386955082417, 0.014025131240487099, 0.08014293760061264, -0.13169464468955994, 0.01272919774055481, -0.16684086620807648, 0.10857216268777847, -0.0779963880777359, -0.06408853083848953, 0.04821149632334709, -0.0654945820569992, -0.012949611060321331, -0.13205371797084808, 0.005261801183223724, 0.01798122376203537, 0.0378960445523262, 0.06746355444192886, 0.011202055960893631, -0.00518804881721735, -0.0002871400211006403, 0.02776128053665161, -0.15629343688488007, 0.02185174636542797, -0.035542428493499756, 0.01461540162563324, -0.005799736361950636, -0.18904724717140198, -0.04832930117845535, -0.029599443078041077, 0.033930227160453796, -0.023520171642303467, 0.037695322185754776, 0.008102566935122013, -0.04569193720817566, -0.1185295581817627, -0.08155599236488342, -0.06361828744411469, 0.030278753489255905, -0.10217297822237015, -0.0113031305372715, -0.010712765157222748, -0.088715560734272, -0.0077318791300058365, 0.014385608956217766, 0.04429285228252411, -0.04467635229229927, 0.1609385907649994, -0.05957718566060066, -0.08251902461051941, -0.02661561220884323, 0.00403487216681242, 0.012790504842996597, -0.1493365317583084, 0.15875166654586792, -0.009188665077090263, 0.07117535173892975, 0.21511344611644745, -0.0030553964897990227, -0.1564231812953949, 0.009492944926023483, 0.13800346851348877, -0.004765341058373451, -0.025939032435417175, 0.009826484136283398, -0.09886612743139267, 0.013178029097616673, -0.02760157734155655, -0.03794616460800171, 0.05675429850816727, 0.055705104023218155, 0.015200240537524223, 0.1238318458199501, 0.06691788136959076, -0.0807194784283638, 0.02872215211391449, 0.12202663719654083, -0.06318271160125732, 0.11342284828424454, 0.0653916671872139, -0.05964842066168785, 0.1321043074131012, 0.012408756650984287, -0.05819684639573097, 0.05971661955118179, 0.020878365263342857, -0.038625188171863556, -0.03817598521709442, 0.14080215990543365, 0.0739455595612526, 0.07304047048091888, -0.06182379648089409, 0.0660000592470169, -0.03611823916435242, 0.006330701522529125, -0.005395990796387196, 0.054322853684425354, -0.13778866827487946, -0.026246920228004456, 0.02349981851875782, -0.004269799683243036, 0.09445866197347641, 0.04859207570552826, -0.1214495301246643, 0.09890852123498917, 0.010413378477096558, -0.06570447981357574, 0.05903099477291107, 0.039022356271743774, -0.018863845616579056, 0.0809631422162056, 0.01644570752978325, -0.06470158696174622, -0.03209621459245682, 0.12964162230491638, 0.11992687731981277, 0.05208401381969452, 0.059639040380716324, -0.0005839383811689913], [-0.0006686834385618567, -0.05854688957333565, -0.08317618817090988, -0.05361688509583473, 0.15549392998218536, 0.05749601125717163, -0.09006040543317795, -0.010570268146693707, -0.08388366550207138, 0.015937216579914093, 0.11054141819477081, -0.0016263781581074, 0.004455432761460543, -0.035181883722543716, -0.011813629418611526, -0.0198379997164011, 0.12530145049095154, -0.07381153851747513, 0.001615909393876791, 0.025482788681983948, -0.003851688466966152, 0.23109857738018036, 0.05577388033270836, -0.07633698731660843, -0.08445937186479568, 0.18182428181171417, 0.06930746883153915, -0.016566196456551552, 0.011421110481023788, -0.012361290864646435, 0.1121802106499672, -0.03354542702436447, -0.05027204751968384, 0.13217397034168243, -0.13190442323684692, 0.05445953458547592, -0.13201524317264557, -0.05210232734680176, 0.11259984970092773, -0.008156340569257736, -0.038573700934648514, 0.096440888941288, 0.022479895502328873, 0.16917726397514343, 0.022532837465405464, 0.0966445580124855, 0.031039346009492874, 0.07744337618350983, 0.007489882409572601, -0.04226512461900711, 0.05243265628814697, 0.02533567138016224, -0.054163090884685516, -0.002364465966820717, 0.009728590026497841, -0.010224929079413414, -0.033491283655166626, 0.014736377634108067, -0.069970041513443, -0.006447196006774902, -0.02961812913417816, 0.03633468970656395, 0.03386745601892471, 0.07705038785934448, -0.02187168598175049, -0.124707892537117, 0.037763603031635284, 0.014564819633960724, 0.2156894952058792, 0.051250748336315155, -0.055487312376499176, -0.015731684863567352, 0.07210956513881683, -0.054370440542697906, -0.06657402962446213, -0.0019824933260679245, -0.01743205636739731, -0.03313092142343521, -0.15395446121692657, -0.005915333051234484, 0.03486298769712448, 0.09369426965713501, 0.006840703543275595, -0.09850983321666718, 0.005473476834595203, 0.04460512846708298, -0.04570446163415909, -0.06524018943309784, -0.12535545229911804, 0.011509801261126995, -0.10907654464244843, -0.010613158345222473, 0.12072435766458511, -0.03179289773106575, 0.0025516292080283165, -0.08879564702510834, 0.019034579396247864, 0.07807018607854843, 0.07846257090568542, -0.10315502434968948, -0.06251001358032227, 0.10347475856542587, -0.029223693534731865, -0.06936734914779663, -0.0030481291469186544, 0.04455828666687012, 0.0008811326697468758, 0.11998652666807175, 0.022789182141423225, -0.007508076727390289, -0.06873847544193268, -0.05119946599006653, 0.01991978846490383, 0.013147435151040554, 0.0892627164721489, 0.04730257764458656, 0.058990370482206345, 0.07564129680395126, -0.11386924982070923, 0.059896666556596756, 0.07353714108467102, 0.011979707516729832, -0.08838138729333878, 0.021016351878643036, 0.1118440255522728, -0.014237731695175171, -0.019791362807154655, -0.06019105389714241], [0.06803441047668457, 0.0382329486310482, 0.04273272305727005, -0.001719365594908595, 0.025981325656175613, -0.05250348150730133, 0.03449903801083565, 0.04366181418299675, -0.004176689311861992, -0.018054334446787834, 0.02331821620464325, 0.03847232460975647, 0.021067621186375618, 0.059846825897693634, -0.15606148540973663, -0.037666089832782745, 0.04873478785157204, 0.01126850489526987, 0.048467472195625305, 0.030499370768666267, -0.06811341643333435, 0.0481535829603672, 0.05393616482615471, 0.09395026415586472, 0.07524405419826508, -0.13780304789543152, -0.025133376941084862, -0.049911562353372574, -0.05634457617998123, 0.12022310495376587, -0.05916302278637886, -0.08856125921010971, 0.012112010270357132, 0.09093376994132996, -0.045795246958732605, 0.07024146616458893, -0.027791814878582954, -0.001758541795425117, -0.0066751353442668915, -0.014721539802849293, 0.051402267068624496, 0.04079559072852135, 0.02337845042347908, -0.12802450358867645, -0.03780835121870041, -0.1105305477976799, -0.031675372272729874, -0.12410113215446472, 0.00790140125900507, -0.023235240951180458, 0.12899883091449738, 0.0505705364048481, 0.02789171040058136, 0.0739281177520752, 0.12268272787332535, -0.007000789511948824, 0.01665634475648403, -0.05504417419433594, 0.03147652745246887, -0.08467310667037964, -0.06052841618657112, 0.069002665579319, -0.1400536447763443, -0.21831761300563812, -0.007886790670454502, 0.14092613756656647, 0.11962360143661499, 0.09777671843767166, 0.10773412883281708, -0.03135615587234497, 0.06305879354476929, -0.13699735701084137, 0.12071844190359116, -0.03673853352665901, -0.04209965094923973, -0.05701753869652748, 0.005335250403732061, -0.0164056196808815, 0.07345166057348251, -0.01898174174129963, -0.1444646567106247, 0.008787327446043491, 0.06924935430288315, 0.013403045944869518, 0.010615074075758457, 0.045503973960876465, 0.026206575334072113, 0.1729746311903, -0.03413555771112442, -0.004527125041931868, 0.0006480888114310801, 0.09574849158525467, 0.006889667361974716, 0.008458763360977173, -0.08207584917545319, -0.11513835936784744, 0.013070166110992432, -0.032920144498348236, -0.013728179037570953, -0.06453803926706314, -0.016058029606938362, -0.05155963823199272, -0.07715914398431778, -0.03361587971448898, 0.06784729659557343, 0.08586728572845459, 0.01342766359448433, 0.16129934787750244, 0.015043717809021473, 0.01794378086924553, 0.047940924763679504, 0.0008584467577748001, 0.012505081482231617, 0.09391821920871735, 0.09852141886949539, -0.023788971826434135, 0.0030489733908325434, -0.032738301903009415, 0.03936394676566124, 0.0124885905534029, 0.02617127075791359, 0.12984488904476166, -0.08841416984796524, -0.0005443614209070802, -0.014867397956550121, 0.04803106561303139, 0.022709613665938377, -0.035727180540561676], [-0.008480499498546124, -0.10942201316356659, 0.0165769774466753, 0.10673505812883377, 0.009899050928652287, 0.039482224732637405, -0.086970753967762, 0.035984620451927185, -0.02327810414135456, -0.01344278920441866, 0.07196515053510666, -0.02454344555735588, -0.0036286460235714912, -0.1528424322605133, -0.1454220861196518, -0.010769196785986423, 0.04073740541934967, 0.09269142150878906, 0.0393533818423748, -0.0409405454993248, 0.10440277308225632, 0.06713180989027023, 0.023739194497466087, -0.07905855774879456, -0.00183792132884264, -0.05866739898920059, 0.07491715997457504, 0.06265431642532349, -0.00014661496970802546, -0.17058268189430237, 0.08040129393339157, -0.11884969472885132, 0.08590196073055267, 0.060220375657081604, 0.04055215045809746, 0.07109701633453369, -0.03173065558075905, 0.08283725380897522, -0.04417027533054352, 0.05580143257975578, -0.032129399478435516, 0.025240927934646606, -0.06564092636108398, 0.09469233453273773, 0.10068312287330627, 0.027549955993890762, -0.05779244378209114, 0.06919848918914795, 0.11811820417642593, -0.06948679685592651, -0.12698689103126526, 0.05454973503947258, -0.09386801719665527, -0.0761360302567482, -0.11604474484920502, -0.06900831311941147, 0.12323331832885742, 0.02666231244802475, 0.07845699787139893, -0.042691782116889954, 0.0936228483915329, 0.024671850726008415, 0.058527857065200806, 0.09271534532308578, 0.11637924611568451, 0.05436273664236069, -0.03724784404039383, 0.05834931135177612, 0.03561118617653847, -0.0329032726585865, -0.12736254930496216, 0.11086823046207428, -0.018799861893057823, 0.051717694848775864, -0.05110878124833107, 0.11795877665281296, 0.047414448112249374, -0.10090050101280212, 0.013943890109658241, 0.03306415677070618, -0.11202874779701233, -0.07158895581960678, -0.019870109856128693, 0.023468758910894394, 0.04693955183029175, -0.06316838413476944, 0.00882217288017273, -0.09982936084270477, -0.05036523938179016, 0.008475646376609802, 0.06823427230119705, 0.011787373572587967, -0.33282554149627686, -0.1049070656299591, -1.7816772015066817e-05, 0.012383382767438889, 0.09787952154874802, -0.03589152544736862, 0.025360461324453354, 0.00500502809882164, -0.02095934934914112, 0.03374043107032776, -0.07502947747707367, -0.018072331324219704, -0.07280734926462173, 0.05368804559111595, -0.028477558866143227, 0.09086307138204575, 0.0009870303329080343, 0.005331385415047407, -0.06269246339797974, -0.015276857651770115, -0.02968197874724865, -0.04005706310272217, -0.0696130245923996, 0.01059880293905735, -0.015611452981829643, 0.033767569810152054, -0.08438724279403687, 0.009713017381727695, -0.050434745848178864, 0.10755959153175354, 0.009595602750778198, -0.06063290312886238, 0.11654292792081833, 0.044184282422065735, -0.005987957585602999, 0.003459776286035776], [0.01477844174951315, 0.09563460201025009, -0.030880426988005638, 0.01867741532623768, -0.008661262691020966, 0.07014410197734833, 0.15111787617206573, -0.07749132066965103, -0.07508162409067154, -0.02359052561223507, 0.10758073627948761, -0.001495318952947855, 0.14887352287769318, -0.1156938299536705, -0.08437711000442505, -0.1364527940750122, -0.1696443110704422, -0.04927260801196098, 0.06769053637981415, 0.055476751178503036, -0.02507767267525196, 0.04615666717290878, -0.012005380354821682, -0.027621472254395485, 0.013107932172715664, 0.08908943831920624, -0.06857940554618835, -0.10415024310350418, 0.09924811124801636, 0.11867678165435791, 0.0707121267914772, -0.03765749931335449, 0.0485776886343956, -0.06577516347169876, -0.008407571353018284, 0.020642388612031937, -0.020290039479732513, -0.051128268241882324, 0.0052702296525239944, 0.07502368837594986, 0.04252772033214569, 0.00010190668399445713, -0.06094241514801979, 0.02779312990605831, 0.037564147263765335, 0.060365427285432816, 0.049724381417036057, -0.027984008193016052, 0.02629043720662594, 0.09543212503194809, 0.04508262872695923, -0.059413619339466095, -0.07453679293394089, 0.023724766448140144, 0.0869889110326767, -0.045016638934612274, 0.01452089473605156, 0.019294988363981247, 0.19041769206523895, 0.09304819256067276, -0.020185893401503563, -0.027300331741571426, -0.026747172698378563, 0.10431535542011261, -0.01606854237616062, -0.030501971021294594, -0.21653364598751068, 0.1491444855928421, 0.06368551403284073, -0.0067917765118181705, -0.043604861944913864, -0.054910074919462204, -0.16416199505329132, -0.016632400453090668, -0.05111303925514221, 0.046956561505794525, 0.0024136644788086414, -0.004819933325052261, -0.002377957571297884, -0.07614706456661224, -0.01617146097123623, -0.12067262828350067, 0.06105884537100792, 0.008258809335529804, 0.008089582435786724, -0.010651123709976673, 0.23868328332901, -0.02012443169951439, -0.032542940229177475, 0.07790310680866241, -0.0625796765089035, -0.07083431631326675, -8.10169440228492e-05, 0.06768044829368591, 0.02436591312289238, -0.05224018171429634, -0.05247469246387482, 0.005349219311028719, -0.0498875230550766, 0.01937743090093136, -0.016976574435830116, 0.10107709467411041, -0.036053720861673355, -0.06906238943338394, -0.03899703174829483, 0.06998814642429352, 0.09087353199720383, -0.09392207115888596, 0.004900629166513681, 0.0645865797996521, -0.15867102146148682, 0.013605999760329723, -0.1365707516670227, 0.042487118393182755, 0.027092337608337402, -0.0825943723320961, 0.08566146343946457, -0.04563656076788902, 0.007198294624686241, -0.10052688419818878, -0.0764593854546547, -0.052755389362573624, 0.023109519854187965, -0.025537317618727684, 0.0987202599644661, -0.021894032135605812, 0.016855433583259583, 0.10318753868341446], [0.060766223818063736, 0.03925567492842674, -0.0018805882427841425, -0.011930091306567192, 0.03834305703639984, 0.0978681743144989, 0.10431459546089172, -0.027827179059386253, 0.05848477780818939, 0.024880461394786835, 0.1101078987121582, 0.05311138927936554, -0.08936818689107895, 0.04564693197607994, 0.08180854469537735, 0.05587594956159592, -0.1621745079755783, 0.02870337665081024, 0.06316900253295898, -0.014691264368593693, 0.008089282549917698, -0.2815055251121521, -0.025610418990254402, 0.06477108597755432, -0.03674613684415817, 0.16851483285427094, -0.011478882282972336, -0.13938608765602112, -0.005200832616537809, -0.04837190359830856, -0.1041850596666336, 0.027842653915286064, 0.001406390219926834, 0.19149929285049438, 0.00908497255295515, 0.07626086473464966, 0.07465686649084091, 0.010052270255982876, 0.1226629987359047, 0.0709119364619255, -0.05487217381596565, 0.016674665734171867, 0.03910299763083458, 0.015287038870155811, -0.16224318742752075, -0.06336960196495056, -0.17301590740680695, 0.12423869222402573, -0.00312877562828362, -0.05737219378352165, 0.045993294566869736, -0.05414700135588646, -0.07477544248104095, 0.11739715933799744, 0.045842573046684265, -0.03977813571691513, -0.019058266654610634, 0.05187021940946579, 0.030898073688149452, -0.060145214200019836, 0.02366035245358944, -0.08773614466190338, -0.06678558140993118, 0.1000095084309578, -0.002389686182141304, 0.08354224264621735, 0.0694286897778511, -0.13676796853542328, -0.011519424617290497, -0.07967737317085266, -0.014426963403820992, 0.02295033074915409, 0.03429362550377846, 0.01360352337360382, -0.10494884848594666, -0.09231150895357132, -0.06003484129905701, 0.07921495288610458, -0.005796716082841158, -0.015212279744446278, 0.15094980597496033, -0.028000885620713234, -0.14294472336769104, 0.02644941210746765, -0.05193933844566345, 0.016136130318045616, -0.11623769998550415, -0.014232872985303402, -0.06544320285320282, -0.05491706728935242, -0.017538558691740036, -0.06882898509502411, -0.13136689364910126, -0.014771259389817715, -0.004527781158685684, -0.13598023355007172, -0.004902772139757872, 0.1199197843670845, -0.22199882566928864, 0.04011204093694687, 0.03453585132956505, -0.11561667919158936, -0.049281638115644455, 0.011196068488061428, -0.043046869337558746, 0.21093256771564484, -0.10633132606744766, 0.1392449140548706, -0.033777736127376556, 0.0008634910918772221, 0.08285343647003174, 0.014353347942233086, -0.05140302702784538, -0.07307882606983185, 0.2152310013771057, 0.09365539997816086, 0.07938486337661743, 0.0635802149772644, 0.11890850961208344, 0.04684913903474808, 0.0006821762653999031, -0.007514575961977243, -0.0725073516368866, -0.06373751908540726, -0.21336989104747772, 0.01397368311882019, -0.035140443593263626, 0.06912457197904587], [0.003934786189347506, 0.008480053395032883, -0.03345991671085358, 0.02181612327694893, 0.03509246185421944, -0.03777100518345833, 0.07796944677829742, -0.06691902875900269, 0.11241484433412552, 0.042111750692129135, -0.017567124217748642, -0.01879873499274254, -0.013796691782772541, 0.08266692608594894, -0.01443999819457531, -0.07930334657430649, -0.00391496391966939, -0.07546070218086243, 0.16322363913059235, 0.027780737727880478, 0.04069248214364052, 0.024536823853850365, 0.0656052902340889, -0.027062982320785522, 0.01766873151063919, 0.04576077684760094, -0.09367435425519943, -0.11585696786642075, 0.023937592282891273, 0.0715450718998909, -0.03005858138203621, -0.0015337665099650621, 0.12546107172966003, 0.020911147817969322, -0.01681019924581051, -0.07410895824432373, -0.030124159529805183, -0.02075364999473095, -0.02489476278424263, 0.10624492913484573, 0.05916135758161545, 0.08967682719230652, -0.03221268951892853, -0.05422346666455269, 0.12385855615139008, -0.040892209857702255, -0.0726265236735344, 0.2183317095041275, -0.02663801610469818, -0.020552057772874832, 0.052642934024333954, 0.017467042431235313, -0.024036405608057976, 0.11447480320930481, 0.03988494724035263, -0.011373167857527733, -0.07592175900936127, 0.061772335320711136, 0.03526071086525917, -0.16142113506793976, 0.03708444535732269, 0.014939670450985432, 0.17877724766731262, -0.00917324423789978, -0.09218652546405792, 0.006862789858132601, -0.03968716040253639, 0.008919627405703068, -0.10013330727815628, -0.025088677182793617, 0.02019639126956463, 0.0006979951285757124, 0.12261271476745605, 0.04899320751428604, -0.05056583881378174, -0.011214339174330235, -0.01449277438223362, -0.08934988081455231, 0.029049336910247803, 0.04487180709838867, 0.07039526849985123, -0.00301965675316751, 0.09873151034116745, -0.11788839101791382, 0.006286204792559147, -0.01900290511548519, -0.04629698023200035, -0.12464158236980438, 0.046576473861932755, 0.0781417191028595, -0.053748685866594315, 0.017064349725842476, -0.059209972620010376, 0.011011650785803795, -0.14037981629371643, -0.10490976274013519, -0.12840688228607178, -0.16552826762199402, 0.14618811011314392, 0.04841017350554466, -0.02096901461482048, -0.09676197171211243, -0.004338398575782776, -0.02997124008834362, 0.09580224752426147, -0.02067267894744873, -0.12581703066825867, 0.004890995565801859, 0.08173280954360962, 0.07165894657373428, -0.04469279199838638, -0.006149346008896828, -0.03560423478484154, -0.13911953568458557, -0.026630567386746407, -0.05159242823719978, 0.048271022737026215, -0.07563463598489761, -0.013032283633947372, -0.07680568844079971, -0.06234549358487129, -0.11941510438919067, 0.00777724664658308, 0.03521227091550827, -0.01277448982000351, 0.02685718983411789, 0.11147142946720123, -0.14365758001804352], [-0.0008054107311181724, 0.11168781667947769, -0.007236842066049576, 0.10129211843013763, -0.0037731179036200047, -0.08468037098646164, 0.050041314214468, -0.07166960835456848, 0.0294091384857893, -0.08823185414075851, -0.013635366223752499, -0.05351635441184044, -0.12988756597042084, 0.08375237137079239, -0.1335838884115219, -0.1161426454782486, 0.05766983702778816, 0.011147554963827133, -0.020423168316483498, -0.03185392543673515, -0.0710918977856636, -0.06587773561477661, 0.0007503395900130272, -0.05619724467396736, 0.08561334758996964, -0.07245322316884995, 0.016031913459300995, 0.011837645433843136, -0.09534665197134018, 0.059494003653526306, 0.037061404436826706, 0.05383387580513954, 0.06785979866981506, -0.021468287333846092, -0.12126845866441727, -0.02801894210278988, 0.019198250025510788, -0.14114351570606232, -0.01436702162027359, -0.10639169812202454, 0.007610471453517675, -0.04350515082478523, -0.03833003342151642, 0.07022969424724579, -0.0390872098505497, -0.02723156288266182, -0.0002575617691036314, -0.044906582683324814, -0.06283402442932129, -0.08931829035282135, -0.1460391730070114, -0.004214847460389137, 0.07558468729257584, -0.05560869723558426, 0.09063542634248734, -0.139828160405159, 0.004646666813641787, -0.015004495158791542, -0.12921172380447388, 0.07117646187543869, 0.10827644914388657, -0.021823132410645485, 0.06447113305330276, -0.002769245533272624, 0.02924431301653385, 0.008020173758268356, 0.17740225791931152, 0.002357641002163291, -0.037973642349243164, 0.17221978306770325, -0.03677009418606758, 0.04698595404624939, -0.017138026654720306, 0.08223545551300049, -0.03755085915327072, -0.010935582220554352, -0.06060844659805298, -0.041559722274541855, -0.0701015517115593, 0.015811987221240997, -0.032602109014987946, 0.06589313596487045, -0.023861922323703766, 0.03923267871141434, 0.0031382711604237556, -0.04023190215229988, -0.028045665472745895, -0.02024887129664421, -0.07420751452445984, 0.04619181901216507, 0.10656214505434036, -0.11866443604230881, 0.01047979760915041, -0.02798057720065117, -0.05306744948029518, 0.1302395910024643, 0.0015861960127949715, 0.015169472433626652, 0.05628417804837227, 0.04575815424323082, -0.0436406210064888, 0.05411987006664276, -0.006102941930294037, -0.007872923277318478, 0.1524587720632553, 0.07708174735307693, -0.06507731974124908, 0.17237958312034607, -0.10429862886667252, 0.012324047274887562, 0.012266614474356174, -0.037581443786621094, -0.0980544313788414, 0.03546593710780144, 0.0946684181690216, 0.05817147716879845, -0.014809435233473778, 0.061749428510665894, 0.03882620483636856, -0.006083873566240072, 0.08638403564691544, -0.004229725804179907, -0.01041646208614111, -0.011023377999663353, 0.011945866048336029, 0.0010428776731714606, 0.1287624090909958, -0.031774453818798065], [0.014359639026224613, -0.04278447851538658, 0.03853468969464302, 0.01815704256296158, 0.021964287385344505, -0.15442192554473877, 0.23567728698253632, -0.04391904175281525, 0.05457572638988495, 0.10737327486276627, -0.003011115826666355, 0.016946889460086823, 0.05283839628100395, -0.10026238858699799, -0.04009757936000824, -0.04126957803964615, 0.06383932381868362, 0.031005984172225, -0.06235992908477783, 0.018042555078864098, -0.14883121848106384, -0.15702904760837555, -0.04614513739943504, -0.05372238904237747, -0.0707186758518219, 0.0073541877791285515, -0.015308026224374771, 0.13887570798397064, 0.06399007141590118, 0.01680944673717022, 0.039376262575387955, 0.007772733923047781, 0.09140986204147339, 0.16096869111061096, 0.11350204050540924, -0.05236976221203804, 0.0002184477634727955, 0.03249741718173027, -0.047327592968940735, -0.15397363901138306, 0.015043310821056366, -0.0956811010837555, -0.017200855538249016, 0.08253272622823715, -0.04462931677699089, 0.009273355826735497, -0.07889146357774734, -0.022578902542591095, 0.21121063828468323, -0.0012270421721041203, -0.07744807004928589, 0.02431151643395424, -0.01576516404747963, 0.0002984238672070205, -0.303189218044281, -0.017796209082007408, -0.00690556550398469, -0.05927786976099014, -0.029038527980446815, -0.07384314388036728, -0.08839844912290573, -0.01683288998901844, 0.01421451848000288, 0.10495346039533615, -0.009564600884914398, -0.10838359594345093, 0.00787754263728857, -0.05222691223025322, 0.12247423082590103, 0.06139436364173889, -0.056409627199172974, 0.020107975229620934, -0.05728696286678314, 0.006167335901409388, -0.12977857887744904, 0.08770382404327393, 0.013352085836231709, -0.006258812267333269, -0.023949528113007545, 0.006139285396784544, 0.13558688759803772, -0.06856006383895874, -0.027253970503807068, -0.06543535739183426, 0.002589512150734663, 0.018192708492279053, 0.05907873809337616, -0.06188787519931793, -0.015987593680620193, 0.10084067285060883, 0.025121083483099937, -0.027575436979532242, 0.04288547858595848, 0.03837459161877632, -0.10024239122867584, -0.004528568591922522, 0.14876338839530945, -0.11096462607383728, 0.013349954970180988, 0.03584284335374832, -0.001805641921237111, 0.01495775580406189, -0.04666298255324364, -0.0758817121386528, -0.06030517444014549, -0.0011404549004510045, 0.04003273323178291, -0.026755454018712044, 0.015869880095124245, -0.02904118411242962, 0.03028113953769207, -0.008343087509274483, -0.009416970424354076, -0.05515586957335472, 0.06770097464323044, -0.06542891263961792, 0.08346445113420486, 0.030355151742696762, -0.03735245019197464, -0.05071815848350525, 0.08822466433048248, 0.03217000886797905, -0.031786736100912094, 0.03605959564447403, -0.0226801335811615, 0.014430579729378223, 0.08268150687217712, -0.07424856722354889], [-0.06610650569200516, 0.02871939167380333, 0.059121496975421906, 0.07623732089996338, -0.1229124665260315, 0.07201898843050003, -0.01614200323820114, 0.024722278118133545, 0.004442998673766851, 0.08861707150936127, -0.013737088069319725, 0.06423565000295639, -0.0706455409526825, -0.03758101537823677, 0.13347119092941284, -0.05632134526968002, 0.02037201263010502, -0.054744403809309006, 0.012858906760811806, -0.017490332946181297, -0.10950303077697754, -0.07147427648305893, -0.10558392852544785, -0.11144194006919861, -0.004485825542360544, 0.05672404170036316, 0.02164168655872345, 0.007590527180582285, -0.11677654832601547, 0.05707500874996185, 0.03032487817108631, -0.07680594176054001, 0.017126290127635002, 0.031060485169291496, -0.013906498439610004, -0.037512633949518204, 0.048875290900468826, 0.0005785481771454215, 0.08585912734270096, 0.044111669063568115, 0.10184316337108612, -0.025626135990023613, -0.07795943319797516, 0.054615456610918045, -0.08959192782640457, 0.006194847635924816, 0.05076777562499046, -0.0702456533908844, 0.0377984344959259, -0.0011160685680806637, 0.0345546193420887, -0.0020715969149023294, 0.016096318140625954, -0.05977700650691986, 0.048289887607097626, -0.031451623886823654, 0.14192740619182587, 0.027659805491566658, -0.037352871149778366, -0.07720992714166641, 0.037452779710292816, 0.05471478030085564, 0.11227740347385406, -0.15925365686416626, 0.01712963730096817, 0.016413073986768723, -0.02817603386938572, 0.07501036673784256, 0.04955218359827995, -0.057242173701524734, -0.10492445528507233, -0.016859691590070724, 0.05548740550875664, 0.10476658493280411, 0.024932147935032845, -0.004234228283166885, -0.0324561633169651, 0.05627986416220665, -0.017906909808516502, 0.0353560633957386, 0.036185912787914276, -0.03352447226643562, 0.029922185465693474, -0.10146792978048325, -0.024864843115210533, -0.0702645406126976, -0.07937973737716675, -0.07716076821088791, 0.04456901177763939, -0.1272120475769043, -0.04847050830721855, 0.12227972596883774, -0.03376784175634384, -0.06457789987325668, -0.0003663458628579974, 0.017306707799434662, -0.18079246580600739, 0.060789208859205246, -0.11059083789587021, 0.09639088809490204, -0.08118962496519089, -0.010854744352400303, 0.024016045033931732, -0.010622216388583183, -0.026083389297127724, -0.011475149542093277, -0.10807125270366669, 0.03166923671960831, -0.04411293938755989, 0.028892630711197853, -0.10875888168811798, 0.05016744136810303, 0.014325253665447235, -0.031468283385038376, 0.04104026034474373, 0.10635475814342499, -0.004414817783981562, 0.07337889820337296, 0.16621530055999756, -0.018452607095241547, 0.15303978323936462, 0.08207369595766068, 0.09669018536806107, -0.0337061882019043, -0.03422863036394119, 0.0417182594537735, 0.0589740015566349, 0.07608969509601593], [-0.017999956384301186, -0.00431211618706584, -0.027214275673031807, 0.02623152732849121, 0.050703100860118866, 0.03163917735219002, -0.07985156029462814, 0.029750874266028404, 0.061797186732292175, 0.017266832292079926, 0.04436870291829109, 0.08985872566699982, -0.053860485553741455, 0.02470293641090393, -0.011616569943726063, 0.018169445917010307, 0.05585808679461479, 0.0166703462600708, 0.07091353088617325, -0.04331641271710396, -0.11810068786144257, -0.021745087578892708, 0.08977638185024261, 0.08101906627416611, 0.05638790503144264, 0.0692053735256195, -0.0017829579301178455, 0.0534602515399456, 0.1177775114774704, 0.01790628768503666, -0.11565638333559036, -0.06686043739318848, 0.05046725273132324, -0.0664096549153328, 0.02866588905453682, -0.10216260701417923, -0.057369813323020935, -0.14564603567123413, -0.12402941286563873, -0.04928549379110336, 0.04073594510555267, -0.08029700815677643, -0.036082442849874496, 0.03861828148365021, -0.007072764448821545, -0.11022605746984482, -0.08930519223213196, -0.0850771889090538, -0.1138450875878334, -0.04061974585056305, -0.07031705975532532, -0.002732217311859131, -0.06197412312030792, -0.056557461619377136, 0.07485072314739227, 0.04265700280666351, -0.11678017675876617, 0.032889191061258316, -0.003437632927671075, 0.0031314126681536436, 0.0906720906496048, 0.1126883327960968, 0.009038516320288181, -0.07783711701631546, 0.11567245423793793, 0.0946311429142952, -0.11513836681842804, -0.031379081308841705, -0.05420958995819092, -0.002703876467421651, -0.11476622521877289, -0.006853936705738306, 0.08145775645971298, 0.0033320863731205463, -0.09568517655134201, 0.005518637131899595, -0.0746234878897667, 0.12176737189292908, -0.0724305585026741, 0.024009063839912415, -0.14046694338321686, 0.07306528836488724, 0.01969776675105095, -0.011713569052517414, 0.08116380870342255, 0.08882231265306473, 0.15359918773174286, -0.033726081252098083, -0.025531558319926262, -0.03550899401307106, 0.08959797024726868, 0.02145865559577942, 0.07481572031974792, -0.11073116213083267, -0.025649424642324448, 0.03705347329378128, -0.21057549118995667, -0.011757864616811275, -0.05777532979846001, 0.05576277896761894, 0.12982018291950226, 0.14711235463619232, -0.0844542384147644, 0.016070429235696793, -0.009180700406432152, -0.03908964991569519, 0.12317159026861191, 0.014066372998058796, 0.004448060877621174, -0.019405122846364975, -0.09830914437770844, -0.0038157429080456495, 0.014842880889773369, 0.09683182090520859, -0.1636972576379776, -0.025976119562983513, 0.038870919495821, 0.12137381732463837, -0.013681166805326939, -0.06000785157084465, 0.1413179486989975, -0.007760533597320318, 0.0722852572798729, 0.004759089555591345, -0.06768488883972168, -0.06647335737943649, -0.07050594687461853, 0.016485251486301422], [-0.053862571716308594, 0.03452566638588905, -0.031044507399201393, -0.038429927080869675, 0.029512466862797737, -0.06483839452266693, -0.14363929629325867, -0.20741868019104004, 0.07159243524074554, -0.06618225574493408, 0.03591111674904823, 0.010529802180826664, -0.06265896558761597, 0.014835084788501263, 0.02421501651406288, 0.1492811143398285, -0.016669686883687973, 0.0814209133386612, 0.022371578961610794, -0.03153029829263687, -0.008881887421011925, -0.04320085793733597, 0.03331957012414932, -0.04137665405869484, -0.06499218940734863, -0.056187763810157776, -0.013710922561585903, 0.03462676703929901, 0.04950885474681854, -0.04121357575058937, -0.08210402727127075, -0.2875858545303345, 0.05971832945942879, -0.0029692298267036676, 0.12064190208911896, -0.10518205910921097, -0.08143705874681473, -0.07495448738336563, -0.05797711759805679, -0.14540457725524902, -0.005623285658657551, 0.021545346826314926, -0.005201571621000767, -0.04629536718130112, -0.07749300450086594, 0.0687059611082077, 0.0465245358645916, 0.0610835999250412, -0.040364768356084824, -0.034968506544828415, -0.10738524049520493, 0.03099989891052246, -0.03419958055019379, -0.030152393504977226, 0.12706290185451508, 0.026223374530673027, -0.040699303150177, -0.08290693163871765, -0.04386933147907257, -0.016444945707917213, 0.1324043571949005, -0.02396938018500805, 0.08521784842014313, -0.009629038162529469, 0.1448264718055725, 0.042647093534469604, 0.09050304442644119, 0.11125155538320541, 0.24032340943813324, -0.12274996936321259, -0.043540481477975845, 0.020847300067543983, 0.06564392149448395, -0.04193493351340294, 0.0828612819314003, -0.02103307656943798, 0.002753610024228692, -0.09131180495023727, 0.02424154058098793, 0.03736204653978348, 0.10452024638652802, -0.06953229010105133, 0.09250723570585251, -0.07388865202665329, -0.019150711596012115, 0.06684879958629608, 0.049993012100458145, -0.01901647262275219, 0.1775529384613037, 0.07886173576116562, 0.0673365592956543, 0.04737482964992523, 0.07300830632448196, -0.055612850934267044, 0.16385187208652496, -0.01373958308249712, 0.05665528029203415, -0.00203882553614676, -0.010742862708866596, 0.015749245882034302, 0.020069660618901253, 0.10985515266656876, 0.11365200579166412, 0.002930333837866783, -0.045571181923151016, -0.10003644973039627, 0.01014438271522522, 0.1850309669971466, 0.01883954182267189, -0.046901192516088486, 0.005783022381365299, -0.026821471750736237, -0.14336135983467102, -0.012879920192062855, 0.012464132159948349, 0.022099284455180168, -0.05084088817238808, -0.12526188790798187, 0.08130592107772827, 0.027855945751070976, -0.2343660295009613, -0.05115281045436859, 0.10148541629314423, 0.038577210158109665, -0.04775458574295044, 0.07815232127904892, 0.016782594844698906, -0.044365983456373215], [-0.03858022391796112, 0.025876114144921303, -0.008204019628465176, -0.007589471060782671, 0.056157536804676056, 0.07738493382930756, 0.011519385501742363, -0.009183208458125591, -0.09346751123666763, -0.027939051389694214, 0.08522289991378784, 0.05662272125482559, -0.0615670345723629, -0.04364536330103874, 0.08473220467567444, -0.02979431115090847, 0.07789423316717148, 0.0701451301574707, 0.014453692361712456, -0.09758590906858444, 0.07382313907146454, -0.10979786515235901, 0.06048087775707245, -0.025770816951990128, -0.0914713591337204, -0.07045499980449677, 0.028532059863209724, -0.0780157819390297, -0.13541191816329956, -0.03853344917297363, 0.07716646790504456, -0.14139144122600555, -0.06621850281953812, -0.01649908907711506, -0.13568371534347534, -0.03505865857005119, -0.003029020270332694, -0.01100192777812481, -0.07701848447322845, 0.03690417855978012, -0.013918764889240265, -0.07925517112016678, 0.04114730656147003, -0.08703310042619705, 0.045907676219940186, -0.05076197162270546, -0.0819910392165184, -0.11336800456047058, -0.049497127532958984, -0.05553261563181877, -0.12049435079097748, 0.06364894658327103, -0.14518769085407257, -0.05364237353205681, 0.03260286524891853, -0.027400434017181396, -0.03111700341105461, -0.01664939895272255, 0.1011313647031784, -0.08332084119319916, -0.033343467861413956, -0.061702217906713486, 0.12157869338989258, -0.005652976222336292, -0.09178180992603302, -0.03918120637536049, -0.04873569682240486, 0.08984112739562988, -0.04678824543952942, 0.0338873416185379, 0.19814427196979523, 0.06335034966468811, -0.15303237736225128, -0.036550123244524, 0.024066699668765068, -0.0331568568944931, -0.06620355695486069, 0.0064697470515966415, 0.04609061777591705, 0.006604752503335476, 0.08706273138523102, -0.08117739111185074, 0.038181133568286896, -0.01465067733079195, 0.1275525838136673, 0.06585832685232162, 0.02712005376815796, 0.03678136691451073, -0.04645523056387901, 0.08694873005151749, -0.007978511042892933, -0.027005895972251892, 0.05840960517525673, 0.012154318392276764, -0.018293993547558784, 0.002085156971588731, 0.029448077082633972, -0.0789211243391037, -0.05631261318922043, -0.10863646864891052, 0.13294802606105804, -0.025584228336811066, -0.051426779478788376, 0.013735818676650524, 0.03481970354914665, -0.0022539901547133923, 0.01104502659291029, 0.019590560346841812, 0.03549063205718994, -0.029820211231708527, -0.007576829753816128, -0.03831935301423073, 0.07931838184595108, -0.024020519107580185, 0.01731438748538494, 0.13456088304519653, 0.03449480980634689, 0.03850789740681648, -0.049897413700819016, 0.07828223705291748, -0.04926705360412598, 0.02404192090034485, 0.007609498221427202, 0.03677850216627121, 0.028560595586895943, -0.08516768366098404, 0.10911490023136139, 0.11319338530302048], [-0.02942419797182083, -0.05686679482460022, 0.08268613368272781, -0.040314964950084686, -0.1062811091542244, -0.05449744686484337, 0.005565803963690996, -0.08477000892162323, 0.061656635254621506, 0.08513890951871872, -0.06396026164293289, 0.007233741227537394, 0.15521053969860077, 0.02453635074198246, 0.17237180471420288, -0.05596945807337761, 0.03419113531708717, 0.08788611739873886, 0.11297939717769623, 0.06693645566701889, 0.09300579130649567, 0.03259659558534622, 0.0029034737963229418, 0.015826357528567314, 0.050538189709186554, -0.08980940282344818, 0.010201964527368546, 0.04610742628574371, 0.01693340763449669, 0.01273143570870161, -0.17860889434814453, 0.009923470206558704, -0.044963132590055466, 0.0782342478632927, -0.10502953082323074, 0.1089697778224945, -0.018119387328624725, 0.03858911618590355, -0.022975942119956017, 0.03860435262322426, 0.005411788821220398, -0.08176914602518082, 0.02213795855641365, -0.08267094939947128, 0.12197592854499817, 0.09390545636415482, -0.08197565376758575, -0.022426102310419083, 0.10671062767505646, -0.01948780193924904, -0.05745689570903778, 0.07536869496107101, -0.0003358106769155711, -0.05891503021121025, 0.03648437559604645, 0.03543088585138321, 0.12561896443367004, -0.09106441587209702, 0.10974781215190887, 0.12404148280620575, 0.02412816695868969, 0.016217907890677452, -0.0597619004547596, 0.1020030528306961, -0.005785939749330282, 0.015961624681949615, -0.0318911038339138, -0.017656635493040085, -0.12377713620662689, -0.006389922928065062, -0.020914629101753235, -0.019077841192483902, 0.10091529041528702, -0.05310975760221481, 0.05461840331554413, -0.07476628571748734, 0.038123611360788345, 0.025126252323389053, -0.041169703006744385, 0.013774534687399864, 0.10983207076787949, -0.025702813640236855, -0.02256658487021923, -0.12065473943948746, 0.045262087136507034, -0.06855399161577225, -0.01048423070460558, -0.02211478352546692, -0.08201820403337479, 0.012092976830899715, -0.010300815105438232, -0.0065286303870379925, 0.01085487101227045, -0.0009083939366973937, 0.02243519388139248, 0.031108759343624115, 0.0718817412853241, -0.07178130745887756, -0.06301470100879669, 0.05867864936590195, 0.24953344464302063, 0.0475618913769722, -0.10379438102245331, -0.10985067486763, 0.02925083599984646, 0.013416998088359833, 0.08108776807785034, 0.058452971279621124, 0.07514244318008423, -0.038985125720500946, 0.036929432302713394, -0.0019353984389454126, -0.09222124516963959, -0.03232206031680107, -0.05949784815311432, 0.040188223123550415, 0.003437876468524337, -0.009413685649633408, -0.11266905814409256, 0.058808982372283936, -0.03516066446900368, -0.11951757222414017, -0.16637058556079865, 0.023357389494776726, 0.04604429379105568, -0.06627923250198364, 0.13326479494571686, -0.07296115159988403], [-0.013624629937112331, 0.07921748608350754, -0.0025484305806457996, -0.07074184715747833, -0.024955878034234047, -0.02571340650320053, -0.05369636043906212, 0.12874503433704376, 0.007873721420764923, 0.038262974470853806, -0.04647577181458473, 0.035924654453992844, -0.09729157388210297, 0.16129811108112335, 0.18855884671211243, -0.15354646742343903, -0.2182198315858841, 0.0893719270825386, 0.037452660501003265, 0.07345125079154968, -0.007298855576664209, 0.004526052158325911, -0.08804650604724884, 0.004153210669755936, 0.01503658015280962, 0.011074586771428585, -0.03658716753125191, -0.0392838716506958, 0.01435562502592802, -0.032749712467193604, -0.013611805625259876, -0.16913221776485443, -0.04715308919548988, -0.099347323179245, 0.11490333080291748, 0.019021976739168167, -0.05190030485391617, 0.012972675263881683, 0.017580822110176086, -0.20564521849155426, 0.08238597214221954, 0.06689957529306412, 0.04618903994560242, 0.02642144076526165, 0.011946291662752628, -0.1288319230079651, -0.021678268909454346, 0.06181315332651138, -0.08661897480487823, 0.05929967015981674, 0.17491169273853302, -0.01566721312701702, -0.06324785947799683, -0.03082273155450821, -0.030167942866683006, -0.02825450524687767, 0.05038231238722801, -0.017775608226656914, -0.04114584997296333, 0.029490673914551735, 0.007482792250812054, -0.05345601215958595, -0.010861992835998535, -0.04175274074077606, 0.0661109909415245, -0.016309019178152084, -0.11040116101503372, 0.08939846605062485, 0.016250457614660263, 0.18173617124557495, 0.023706043139100075, -0.13572253286838531, 0.07059460878372192, -0.032480962574481964, 0.12408114224672318, -0.0848267450928688, -0.1968974620103836, 0.11611587554216385, -0.011506828479468822, -0.029025061056017876, -0.0061447457410395145, 0.02615377865731716, -0.1116693839430809, 0.04551829397678375, -0.029462574049830437, 0.05492222681641579, -0.1192479133605957, -0.021743597462773323, 0.015543313696980476, 0.14775243401527405, 0.027999425306916237, -0.05286213010549545, -0.09347023814916611, 0.06380346417427063, 0.1003054529428482, -0.14054599404335022, 0.05171278119087219, 0.0013528362615033984, 0.0009881829610094428, 0.06861486285924911, -0.11039043217897415, 0.048094186931848526, -0.14721985161304474, 0.033628955483436584, 0.01096686627715826, -0.06422257423400879, 0.07215147465467453, 0.007961333729326725, -0.04054386541247368, 0.09204927086830139, 0.006822686176747084, -0.02520766109228134, -0.025994811207056046, 0.09095403552055359, -0.03988327085971832, 0.1013796254992485, -0.09276227653026581, 0.008486737497150898, 0.03188490867614746, 0.09253324568271637, 0.06982874870300293, -0.011345083825290203, -0.0421844944357872, 0.05115398392081261, -0.03317969664931297, 0.044426485896110535, -0.04242102801799774, -0.019544240087270737], [0.04548906162381172, -0.1637546718120575, 0.004964286927133799, 0.13069868087768555, 0.017294326797127724, -0.15160802006721497, 0.08361278474330902, -0.12650181353092194, -0.05739612877368927, -0.022019533440470695, 0.06891900300979614, 0.026310373097658157, 0.09108579158782959, -0.039669644087553024, 0.019832231104373932, -0.08613358438014984, -0.11798246204853058, -0.010923687368631363, 0.11891354620456696, -0.07248885184526443, -0.1044829860329628, 0.08528507500886917, 0.05689505487680435, 0.014755754731595516, 0.023182159289717674, 0.1591986119747162, 0.10671953856945038, -0.194915771484375, 0.06333049386739731, -0.015164749696850777, 0.08266118913888931, 0.08592318743467331, -0.019842667505145073, 0.051983658224344254, 0.01567791774868965, -0.07569041848182678, 0.03662567213177681, -0.08718205988407135, 0.08439049869775772, 0.0038941383827477694, -0.04383440315723419, 0.02296506240963936, -0.16340690851211548, -0.01514833327382803, -0.0769333764910698, 0.052702851593494415, -0.05337017774581909, 0.01385774277150631, 0.00839262641966343, 0.009475591592490673, 0.05846139043569565, -0.025043845176696777, 0.0227349866181612, -0.13457700610160828, 0.03227701410651207, -0.11181538552045822, 0.01760219968855381, -0.10764414817094803, -0.059170059859752655, 0.055188827216625214, -0.04381667450070381, -0.11974906176328659, 0.037149183452129364, -0.08305453509092331, -0.08046109974384308, -0.07638656347990036, -0.03612064942717552, -0.051633790135383606, 0.02313411608338356, -0.03394570201635361, 0.07258259505033493, 0.024743571877479553, 0.0904059037566185, 0.06033838167786598, -0.06185229495167732, -0.04839397221803665, -0.11486203968524933, 0.0017888012807816267, 0.1152539998292923, 0.07285679876804352, -0.04355534911155701, -0.06428501754999161, -0.06625854223966599, 0.12883687019348145, -0.1403874158859253, -0.035735271871089935, 0.07316336035728455, -0.004423853009939194, 0.0274078119546175, 0.02391164004802704, 0.08791037648916245, -0.019220519810914993, -0.0300197321921587, 0.060485437512397766, -0.11094828695058823, 0.1018218845129013, 0.11920610070228577, -0.08508482575416565, -0.083985835313797, 0.04489123448729515, -0.03656021133065224, 0.13055898249149323, 0.0844356119632721, 0.058946024626493454, 0.08868585526943207, -0.08429762721061707, 0.060814253985881805, -0.010207286104559898, 0.022211963310837746, -0.04771706461906433, -0.01946200057864189, 0.036510538309812546, 0.10347010940313339, 0.11393778771162033, 0.00021497423585969955, 0.033081069588661194, -0.02818032167851925, -0.00030580165912397206, -0.03423657268285751, 0.09221531450748444, -0.007801904808729887, 0.09461098909378052, -0.022628532722592354, -0.019597209990024567, -0.013571999967098236, 0.01143565308302641, -0.10364452004432678, -0.03324059769511223], [0.02651916816830635, -0.19691094756126404, 0.05290515348315239, 0.09496347606182098, 0.0537441149353981, -0.025318291038274765, 0.08658025413751602, -0.07205706089735031, -0.07689844071865082, 0.007925295270979404, -0.07821913808584213, 0.1204448863863945, -0.06443901360034943, -0.05259784683585167, -0.029713615775108337, -0.04251252859830856, -0.0808514878153801, -0.031482405960559845, -0.05248616263270378, -0.024803977459669113, -0.04048443213105202, -0.0767064169049263, -0.045348137617111206, 0.04924614727497101, -0.12919187545776367, -0.057691410183906555, -0.0980595201253891, 0.11349456757307053, 0.005756229627877474, -0.12072506546974182, -0.06940096616744995, 0.14720840752124786, 0.0526251494884491, 0.0613928884267807, -0.007135897874832153, 0.09295659512281418, -0.17503416538238525, -0.0496976412832737, 0.16773270070552826, 0.038265079259872437, -0.03249684348702431, 0.118108369410038, -0.07369264960289001, -0.17629560828208923, -0.034513089805841446, -0.023770736530423164, 0.047756075859069824, -0.03186346963047981, 0.022440774366259575, -0.011890239082276821, 0.037977393716573715, 0.15730203688144684, -0.08795618265867233, -0.14285892248153687, 0.06113496422767639, -0.024078145623207092, -0.03503470867872238, 0.034022312611341476, -0.04580387473106384, 0.08112838864326477, 0.05615866184234619, -0.07952523231506348, 0.07946101576089859, -0.09932325035333633, -0.010660434141755104, 0.09413255006074905, -0.011894423514604568, -0.010027422569692135, -0.07212662696838379, -0.18895304203033447, 0.09779030084609985, -0.016806112602353096, 0.061051979660987854, 0.0781593918800354, -0.1275644153356552, 0.014615778811275959, -0.08179128170013428, 0.09935221076011658, -0.05021419748663902, -0.09994599223136902, 0.01740758679807186, -0.03668023645877838, 0.11484046280384064, 0.07300411909818649, 0.030072523280978203, -0.018022043630480766, -0.11489281058311462, 0.007105192169547081, -0.050846442580223083, 0.17327184975147247, 0.04010797664523125, -0.0449986532330513, -0.0833786204457283, 0.11252269148826599, -0.049602609127759933, 0.0646345466375351, -0.15773892402648926, 0.0760447084903717, 0.04171869158744812, 0.0807916522026062, -0.07089534401893616, 0.040722303092479706, 0.09032580256462097, 0.014961586333811283, 0.04438428580760956, -0.02229742519557476, 0.03639810532331467, -0.05954799801111221, 0.07607778161764145, 0.02853739820420742, 0.012838469818234444, 0.05565414950251579, -0.059366390109062195, -0.07034485042095184, -0.1319698691368103, -0.10827954113483429, 0.12612764537334442, 0.07318955659866333, 0.019229590892791748, -0.11519855260848999, -0.041574425995349884, -0.18349988758563995, 0.03285882622003555, 0.017160162329673767, 0.14203010499477386, 0.060672540217638016, -0.12836606800556183, 0.08449260145425797], [0.01372765377163887, 0.06392359733581543, -0.06264648586511612, 0.032413121312856674, 0.05266391113400459, -0.05963417887687683, -0.05992914363741875, -0.005083401687443256, 0.01438707485795021, 0.10252728313207626, 0.047405991703271866, -0.06169183552265167, 0.06810507923364639, 0.020128408446907997, 0.15807095170021057, 0.11783041805028915, -0.15236151218414307, 0.0950193852186203, -0.0835404172539711, 0.0016945478273555636, -0.04677432030439377, -0.051119912415742874, -0.04705085977911949, 0.014905428513884544, -0.08281514793634415, -0.04383716359734535, 6.142032361822203e-05, -0.006699598394334316, -0.09636316448450089, 0.08865349739789963, -0.06827643513679504, -0.013592866249382496, 0.027571486309170723, -0.004626689478754997, -0.10064733028411865, -0.10499512404203415, -0.07582871615886688, -0.09536091983318329, -0.006457568611949682, 0.33125895261764526, -0.0366048589348793, 0.0499403290450573, -0.0688987746834755, 0.04113359376788139, -0.022807592526078224, -0.07737229019403458, -0.024884648621082306, -0.11170965433120728, 0.08207491040229797, 0.06475380808115005, 0.06903523206710815, 0.16621807217597961, 0.06937269121408463, 0.014508984982967377, -0.13480420410633087, -0.013792060315608978, 0.06244458258152008, -0.004860276356339455, 0.05186474695801735, 0.030485086143016815, 0.18998286128044128, -0.0442037433385849, 0.04135282710194588, -0.11073095351457596, -0.08625918626785278, 0.0407017357647419, -0.00816092174500227, -0.09571345150470734, 0.15509402751922607, 0.1964723914861679, -0.19571928679943085, -0.05763911083340645, -0.051510490477085114, -0.07668663561344147, -0.032368991523981094, 0.063539519906044, -0.06776481866836548, -0.06316203624010086, -0.09546983242034912, -0.01820223778486252, -0.32888486981391907, 0.006873427424579859, -0.10466355085372925, 0.0021311864256858826, 0.15565624833106995, 0.1222267895936966, 0.11546961218118668, -0.018114939332008362, 0.12789756059646606, 0.001517871511168778, -0.0019725423771888018, -0.08679743111133575, 0.035134457051754, -0.07217870652675629, -0.06461099535226822, 0.07879220694303513, 0.10610075294971466, 0.02058895118534565, 0.09555660933256149, -0.01079509872943163, 0.025203539058566093, -0.2347126454114914, -0.009315550327301025, -0.09472965449094772, 0.04023171588778496, 0.2076364904642105, -0.03461894765496254, -0.13473308086395264, 0.041088417172431946, -0.004227478988468647, 0.03769369050860405, 0.07861313968896866, 0.24989871680736542, -0.2768643796443939, -0.01815386489033699, -0.004895348101854324, 0.0706663727760315, 0.05556120723485947, -0.04412739351391792, -0.10103676468133926, -0.05781709402799606, 0.007502476219087839, 0.06729760020971298, -0.083058200776577, 0.11457230150699615, 0.012963888235390186, -0.037817299365997314, -0.053443413227796555], [-0.04908275976777077, 0.004120545461773872, -0.00015731244639027864, 0.07569483667612076, -0.03388960286974907, -0.1877427101135254, -0.07750125229358673, 0.11802876740694046, 0.07831677049398422, 0.02348819375038147, -0.07700298726558685, 0.052797190845012665, 0.0783187672495842, -0.01967787556350231, -0.1240258738398552, 0.050433821976184845, 0.03841142728924751, 0.02318260632455349, -0.003512605791911483, 0.04337407648563385, -0.07884442061185837, 0.1592816859483719, -0.14733414351940155, -0.02951103262603283, -0.08191967755556107, 0.032032083719968796, -0.028321364894509315, 0.10249349474906921, 0.055012501776218414, -0.02502112276852131, -0.18888773024082184, -0.04832884669303894, -0.08372695744037628, 0.01827429234981537, -0.0740763396024704, -0.006108811125159264, 0.11472378671169281, -0.027387389913201332, -0.007786616683006287, -0.05016191676259041, 0.05643615499138832, 0.1634799689054489, -0.0504668653011322, -0.14807480573654175, 0.026426251977682114, 0.12345778942108154, 0.027948493137955666, -0.049344319850206375, -0.012450198642909527, -0.008064019493758678, -0.0961141288280487, -0.057490747421979904, 0.05400896444916725, -0.077651746571064, 0.08297640085220337, -0.1808505654335022, 0.02890123426914215, 0.15946803987026215, 0.14133934676647186, -0.08802393823862076, 0.16622969508171082, -0.05320136249065399, 0.08472474664449692, -0.020293110981583595, 0.00540133798494935, -0.020294124260544777, 0.04451524838805199, 0.05698456987738609, 0.10597312450408936, -0.017869966104626656, 0.24550113081932068, 0.04658089578151703, 0.020470863208174706, 0.06970251351594925, 0.057497888803482056, -0.07683469355106354, -0.07032348960638046, -0.1296566277742386, -0.0656551942229271, -0.09968581795692444, 0.11067015677690506, -0.0691058486700058, -0.08680693805217743, -0.013517904095351696, -0.049238111823797226, 0.04987935349345207, 0.18258272111415863, 0.01025818195194006, 0.12844638526439667, -0.03416779264807701, -0.10722312331199646, -0.011978773400187492, -0.1043810173869133, -0.051174577325582504, 0.004178466275334358, -0.11657989770174026, -0.0649009495973587, 0.022343527525663376, 0.061517100781202316, -0.09764198213815689, 0.14429894089698792, -0.05188965052366257, -0.056058719754219055, -0.07817506045103073, 0.07616714388132095, -0.04784153401851654, -0.14905977249145508, -0.05010651424527168, 0.0390113890171051, 0.003776022931560874, -0.0574268139898777, -0.007433638907968998, 0.1032702773809433, -0.020464494824409485, -0.08251304924488068, -0.014041474089026451, -0.05524352937936783, 0.07235376536846161, 0.08049745112657547, 0.005211447365581989, 0.2008070945739746, 0.06469625979661942, -0.013737007044255733, 0.10938931256532669, -0.07116810232400894, 0.027881614863872528, 0.06972111761569977, 0.1315973401069641], [-0.11255040764808655, -0.09207898378372192, -0.09852086007595062, 0.062048789113759995, 0.0815744400024414, 0.13355933129787445, 0.10254136472940445, -0.008240788243710995, -0.07089141011238098, 0.12773334980010986, 0.009845461696386337, -0.10910303890705109, -0.015925778076052666, 0.09467873722314835, 0.19633246958255768, 0.0826621875166893, -0.12126901745796204, -0.06061651185154915, -0.06954196095466614, 0.12518058717250824, 0.07672635465860367, 0.07563267648220062, 0.15435346961021423, 0.0713498443365097, -0.021030418574810028, -0.07623555511236191, 0.04944070056080818, 0.006841587834060192, -0.0009221525397151709, 0.0791206955909729, 0.14275334775447845, -0.03634747490286827, 0.022575493901968002, 0.045077819377183914, -0.007515988312661648, 0.06487654149532318, -0.11394225060939789, -0.14854338765144348, -0.05711837857961655, -0.08259124308824539, -0.014794387854635715, -0.043257780373096466, 0.08878497779369354, -0.024105852469801903, 0.03610865771770477, -0.013108291663229465, 0.05301686376333237, -0.02712407335639, -0.12671594321727753, -0.0926990881562233, -0.2590511441230774, -0.004805014003068209, -0.005181930959224701, 0.0864589512348175, -0.08190227299928665, -0.0639454796910286, -0.02009725756943226, -0.04196910187602043, -0.03679370880126953, -0.031046569347381592, 0.05148879438638687, 0.0287332683801651, -0.015570509247481823, 0.05499646067619324, -0.12159926444292068, 0.07309368252754211, -0.14922106266021729, 0.10644505172967911, 0.13275417685508728, -0.014860340394079685, -0.13759712874889374, 0.05461445078253746, -0.04433349892497063, 0.039808064699172974, 0.029523732140660286, 0.13306891918182373, -0.0864652693271637, 0.03687691316008568, 0.07477883249521255, 0.009396658279001713, 0.08895676583051682, -0.1335565447807312, -0.007941716350615025, 0.10779618471860886, -0.01031561754643917, 0.02104463055729866, -0.09178350865840912, -0.060863785445690155, -0.08022990822792053, -0.04118432477116585, -0.05807017534971237, 0.13536392152309418, -0.10463704913854599, 0.08080199360847473, 0.04145762324333191, -0.014121794141829014, -0.0020666925702244043, -0.03997064009308815, 0.014375487342476845, -0.08954084664583206, -0.01935705915093422, 0.10747892409563065, 0.05209309235215187, -0.05517168343067169, -0.020649198442697525, -0.05060020461678505, -0.1482948213815689, 0.0028885058127343655, -0.008314101956784725, -0.03858346492052078, -0.06441731005907059, -0.06548846513032913, 0.14191502332687378, 0.05419381335377693, 0.05924176052212715, -0.060354940593242645, -0.02091117948293686, 0.07280992716550827, -0.008876380510628223, 0.08734861761331558, 0.025080597028136253, 0.046119581907987595, -0.0017269561067223549, -0.0431499108672142, -0.018008077517151833, 0.006042314227670431, -0.000820864166598767, -0.02487919293344021], [0.007296630181372166, 0.060445528477430344, 0.04611530154943466, 0.03185665234923363, 0.2029821276664734, 0.026268502697348595, 0.10408061742782593, 0.14894850552082062, 0.03328179940581322, 0.05626058205962181, -0.0003147130773868412, 0.053110409528017044, -0.034349121153354645, -0.005632670130580664, 0.09060408174991608, 0.10520760715007782, 0.10970864444971085, -0.07605414092540741, -0.052209675312042236, 0.11208547651767731, -0.08795935660600662, 0.06539946049451828, -0.07792864739894867, 0.022120749577879906, -0.004456277471035719, -0.04029794782400131, 0.03227565437555313, -0.015439960174262524, -0.06571124494075775, 0.03636237606406212, 0.09635020792484283, -0.13130295276641846, -0.020940415561199188, 0.0827736034989357, 0.05005999282002449, 0.0526767335832119, -0.03971515968441963, 0.05800103396177292, -0.05238407105207443, -0.09981974959373474, 0.09901686757802963, -0.12139181792736053, 0.009192842990159988, -0.08592598140239716, 0.015498850494623184, 0.06812403351068497, 0.042528361082077026, -0.0687301903963089, -0.3398115932941437, -0.07145518809556961, 0.029309231787919998, 0.05916807800531387, 0.10267571359872818, -0.052543822675943375, 0.010312460362911224, 0.1284065544605255, 0.008735875599086285, -0.019943755120038986, -0.06438679248094559, 0.028323715552687645, 0.09998615831136703, 0.013379734940826893, -0.024275222793221474, 0.028008127585053444, -0.07131703197956085, -0.1258019655942917, 0.058047451078891754, 0.12430725246667862, -0.11265285313129425, -0.038802582770586014, -0.0687125027179718, -0.13039115071296692, -0.024187471717596054, 0.014031798578798771, 0.010350631549954414, 0.02095523104071617, 0.24222329258918762, -0.07342767715454102, -0.012578085064888, -0.05933580920100212, 0.03499983251094818, 0.02744475193321705, -0.04898395761847496, -0.01932131126523018, -0.14696253836154938, 0.031007595360279083, 0.03511735424399376, -0.03202013671398163, 0.07864053547382355, 0.10642796009778976, 0.012193952687084675, -0.05830035358667374, -0.02015720121562481, -0.1365015059709549, -0.011834637261927128, 0.0006618990446440876, 0.25135523080825806, -0.037238460034132004, 0.0003788778849411756, 0.08590821176767349, -0.024841029196977615, -0.014414368197321892, 0.13851867616176605, 0.07696740329265594, -0.06949756294488907, 0.1371903121471405, 0.0537780337035656, -0.014958447776734829, 0.020973719656467438, -0.044700987637043, 0.015269884839653969, 0.08976934105157852, -0.07803954184055328, -0.01977819763123989, -0.08432547748088837, 0.010519836097955704, -0.10484811663627625, -0.03183886036276817, 0.08278363198041916, -0.032798852771520615, 0.1428130865097046, -0.1460028439760208, -0.04844716191291809, -0.10657129436731339, -0.23235800862312317, 0.0536482110619545, 0.11106064915657043, -0.10010544955730438], [0.04891639202833176, 0.0658695250749588, -0.036746371537446976, -0.02234487421810627, -0.12339775264263153, 0.12620428204536438, 0.11896391957998276, -0.014063253067433834, 0.020526031032204628, -0.1032775491476059, 0.039421446621418, 0.05075720325112343, 0.1371801793575287, 0.020423321053385735, -0.1122804805636406, 0.11354922503232956, -0.006258721929043531, -0.006890072487294674, -0.05359805002808571, -0.02209245041012764, 0.13798043131828308, 0.001191205345094204, 0.0496315062046051, -0.048552997410297394, 0.07008594274520874, -0.14695292711257935, 0.1186470240354538, -0.03876502439379692, -0.0419461764395237, 0.02633936144411564, -0.08209075033664703, 0.14527221024036407, 0.059098199009895325, -0.08245466649532318, -0.00456454511731863, 0.039486322551965714, 0.018633829429745674, -0.005957490298897028, 0.09820422530174255, -0.12192901223897934, 0.07085622847080231, 0.07207923382520676, -0.005578416399657726, -0.020749811083078384, -0.11387743800878525, 0.014550459571182728, -0.05128716304898262, -0.09452377259731293, 0.017741385847330093, -0.10747809708118439, -0.15654703974723816, -0.00741932587698102, -0.07337857782840729, -0.0355699248611927, 0.08422848582267761, -0.01709756813943386, 0.1576741486787796, -0.013539528474211693, -0.06702552735805511, 0.0006485118065029383, 0.056981161236763, 0.09285124391317368, -0.01970994658768177, 0.11380993574857712, 0.004823706112802029, -0.04185185953974724, 0.049110047519207, -0.008526754565536976, 0.10798624902963638, 0.04541400447487831, -0.05619649589061737, -0.0011216014390811324, 0.09890678524971008, -0.006081766448915005, 0.012522727251052856, 0.08524750173091888, 0.006365597248077393, 0.16337186098098755, 0.02348518744111061, 0.011631923727691174, 0.07369568943977356, 0.01918986067175865, -0.030043473467230797, 0.03260137140750885, 0.01755480095744133, 0.061000384390354156, 0.006850891280919313, 0.04899603873491287, 0.02590743824839592, -0.07502621412277222, 0.05671054124832153, -0.004932128358632326, -0.09451664239168167, 0.09634406864643097, -0.008754733018577099, -0.08669911324977875, -0.012798321433365345, -0.026084162294864655, -0.08929701149463654, 0.02013426460325718, -0.03355250135064125, -0.08923324197530746, 0.05331562086939812, 0.007242000661790371, 0.10976896435022354, -0.14456379413604736, -0.0059453886933624744, -0.07418648153543472, -0.11738235503435135, 0.04135928675532341, 0.03968252241611481, 0.0765940472483635, 0.04237790405750275, -0.012795362621545792, -0.1481977105140686, 0.00782532338052988, -0.030637213960289955, 0.050289228558540344, 0.03846157342195511, -0.10921727120876312, -0.06968817859888077, -0.09455092996358871, 0.09203027188777924, 0.06114181876182556, -0.12517566978931427, -0.023608829826116562, -0.05007849261164665, -0.18216398358345032], [0.04387928172945976, 0.06686855107545853, 0.031942714005708694, -0.04777366295456886, 0.05068730190396309, -0.06194493919610977, 0.11336728930473328, 0.04286300390958786, 0.05178572237491608, 0.0013405156787484884, -0.03445260226726532, -0.024154644459486008, -0.07300195097923279, -0.127563938498497, 0.003773545613512397, 0.15349307656288147, -0.012188677676022053, -0.012220633216202259, -0.02759270742535591, 0.10156036168336868, -0.007473842706531286, 0.18409326672554016, -0.032506342977285385, 0.07692477852106094, -0.06301016360521317, -0.018726808950304985, 0.015855921432375908, -0.015749210491776466, 0.0889730155467987, -0.009374485351145267, -0.06513144075870514, 0.09973575919866562, 0.06336060911417007, 0.03834128379821777, -0.03828786686062813, 0.050539541989564896, -0.05784698575735092, 0.010121981613337994, -0.03138383850455284, 0.008930593729019165, -0.11403593420982361, -0.0005221884930506349, -0.010455667041242123, -0.058461327105760574, 0.018168238922953606, 0.04700001701712608, 0.10560423135757446, 0.057361844927072525, 0.06712278723716736, 0.07247863709926605, 0.08368447422981262, -0.14489401876926422, -0.02309609204530716, 0.004434460308402777, 0.031540628522634506, 0.06885432451963425, -0.008775194175541401, -0.04203856736421585, 0.07113437354564667, -0.011400180868804455, 0.03517045080661774, -0.04015040397644043, 0.01576813869178295, 0.12647400796413422, -0.08767387270927429, -0.12590879201889038, -0.07740135490894318, -0.02301105111837387, 0.062211133539676666, 0.006341735832393169, -0.025351092219352722, 0.010942600667476654, -0.08270876854658127, -0.04085846245288849, -0.059420306235551834, 0.013967031612992287, -0.07607395946979523, -0.0535404309630394, -0.04683947563171387, -0.01353729609400034, -0.10343077033758163, -0.09577755630016327, 0.014070997014641762, 0.07818350940942764, 0.1292523294687271, -0.06789950281381607, -0.03269405663013458, 0.004862222820520401, -0.10728712379932404, -0.027166295796632767, 0.019582118839025497, 0.005724847316741943, 0.08785559982061386, -0.07993298023939133, -0.01602206565439701, -0.011638137511909008, 0.0407155342400074, 0.04339268431067467, -0.03596961125731468, -0.03806056082248688, -0.017013700678944588, -0.08679621666669846, 0.012035170570015907, 0.0022509698756039143, -0.04171827435493469, -0.01488556619733572, -0.27271589636802673, 0.00017495160864200443, 0.014571215026080608, -0.07280253618955612, -0.00038484641117975116, 0.0012717408826574683, -0.00877377763390541, 0.07115831226110458, -0.012094246223568916, -0.024830259382724762, 0.04653630405664444, -0.15429332852363586, -0.09808764606714249, 0.049849193543195724, -0.13952027261257172, -0.06358515471220016, 0.09286439418792725, 0.019646411761641502, 0.06881706416606903, -0.03354468569159508, -0.015492367558181286, -0.05973149091005325], [0.06503837555646896, -0.045658648014068604, -0.049159079790115356, 0.006155034527182579, -0.14164839684963226, 0.0350651741027832, -0.09078221023082733, 0.06077193841338158, 0.02020466886460781, -0.09721366316080093, 0.09907577931880951, -0.017666928470134735, -0.10083509236574173, -0.08081219345331192, -0.034054286777973175, 0.13800173997879028, -0.1814127415418625, 0.015259294770658016, -0.1586799919605255, 0.01206086203455925, 0.05191618204116821, 0.0745542123913765, -0.03322794288396835, -0.027919339016079903, -0.03513328358530998, 0.1220446527004242, -0.13562433421611786, 0.1096082255244255, -0.07917274534702301, 0.12349877506494522, 0.21007709205150604, 0.013747604563832283, 0.1571851372718811, 0.04043802246451378, 0.058608278632164, -0.1264752596616745, 0.1281711608171463, 0.008954089134931564, -0.033482298254966736, 0.158506378531456, 0.026253825053572655, -0.12626557052135468, -0.013400034047663212, -0.015420733951032162, -0.0927087813615799, 0.16168810427188873, 0.03891144320368767, 0.04113936051726341, -0.15560093522071838, 0.04272689297795296, -0.09315655380487442, -0.10337775200605392, 0.012108989991247654, -0.026309804990887642, -0.004020798485726118, 0.1108863353729248, 0.14742274582386017, -0.0652901753783226, 0.08362764120101929, 0.03330891951918602, 0.02491026744246483, -0.04713404178619385, 0.037760019302368164, 0.1466178447008133, 0.007161879446357489, 0.040538638830184937, 0.1293034553527832, 0.004403975792229176, -0.025397581979632378, -0.19296376407146454, -0.0039571733213961124, 0.023540074005723, 0.019449856132268906, 0.03284730389714241, -0.10260752588510513, -0.07594461739063263, -0.06740023195743561, -0.08204822987318039, -0.12101291865110397, -0.06860397756099701, 0.012275546789169312, 0.03718649968504906, 0.01732320338487625, -0.032145943492650986, -0.02659965120255947, 0.09974706918001175, 0.04976127669215202, -0.05106980353593826, -0.015645500272512436, -0.03016055002808571, -0.015254085883498192, 0.008340242318809032, -0.008479952812194824, -0.048241887241601944, -0.03307365998625755, -0.12691561877727509, -0.015017037279903889, -0.09798498451709747, -0.03414022922515869, 0.05603545159101486, 0.11900219321250916, -0.01269441470503807, -0.09211888909339905, -0.005173940677195787, -0.09097278863191605, -0.1037093922495842, 0.05024850368499756, -0.1258801817893982, 0.02059275098145008, -0.009824002161622047, 0.09655158966779709, 0.03515826538205147, 0.13039809465408325, -0.043658457696437836, -0.12574447691440582, 0.054710373282432556, 0.027055397629737854, 0.0018680718494579196, -0.06624621897935867, 0.015693645924329758, 0.08244574069976807, 0.12261198461055756, -0.07200849056243896, 0.01713460683822632, 0.03930874541401863, -0.050257302820682526, -0.15061740577220917, -0.03536725789308548], [-0.056593604385852814, 0.08200924098491669, 0.05941158905625343, -0.029078487306833267, 0.07620894908905029, -0.009939250536262989, 0.14980202913284302, -0.17456980049610138, -0.0056006829254329205, -0.04962235689163208, 0.0019323474261909723, 0.08393906056880951, -0.08352077007293701, 0.07566507905721664, 0.06032826378941536, -0.049431212246418, -0.10766718536615372, -0.08657652884721756, -0.02547668293118477, -0.06741639226675034, -0.014652290381491184, 0.018232613801956177, 0.11777529865503311, -0.09256596863269806, -0.05121873691678047, 0.0803392082452774, -0.04671124368906021, 0.1575663983821869, 0.0006312653422355652, -0.011202920228242874, 0.06773916631937027, -0.08414570987224579, -0.00376623566262424, 0.017351437360048294, -0.035186801105737686, -0.010463816113770008, -0.04684867709875107, 0.08070872724056244, 0.039870478212833405, -0.037102337926626205, 0.06585192680358887, -0.07262901216745377, -0.05322835594415665, -0.07041836529970169, -0.05290497466921806, 0.1401655673980713, 0.054650042206048965, 0.12885259091854095, 0.12259405106306076, -0.01129769068211317, 0.01366602722555399, -0.07630642503499985, -0.08746649324893951, 0.015482231043279171, 0.021376680582761765, -0.009610111825168133, 0.1196494922041893, -0.09631551057100296, 0.03836987912654877, 0.12130646407604218, 0.07796415686607361, 0.03880205750465393, -0.00010301371366949752, -0.08023309707641602, 0.05477304384112358, 0.005037607625126839, 0.2453632950782776, -0.04131884500384331, -0.20429883897304535, -0.002841568784788251, -0.06635065376758575, 0.016720250248908997, -0.07183220237493515, 0.02466047741472721, 0.019108381122350693, 0.13690519332885742, -0.01336834765970707, 0.19212529063224792, -0.0018290533917024732, -0.03680988401174545, 0.05400284752249718, 0.016446873545646667, 0.08053059875965118, 0.03880084678530693, 0.026990318670868874, -0.04607515037059784, 0.04201705753803253, 0.049006469547748566, -0.10893383622169495, 0.18954011797904968, -0.1228087842464447, 0.044261686503887177, -0.05942491441965103, -0.14046168327331543, 0.13245433568954468, 0.049991901963949203, -0.21531561017036438, -0.018491927534341812, -0.014800422824919224, -0.14049310982227325, -0.024372218176722527, -0.07770311832427979, 0.011388815939426422, 0.025876116007566452, -0.031617771834135056, -0.022061454132199287, -0.028589703142642975, 0.02628214843571186, -0.016878556460142136, 0.060916680842638016, 0.0949036031961441, -0.07570121437311172, 0.03220796212553978, -0.0636557787656784, -0.05322027951478958, -0.13592688739299774, -0.02527797408401966, 0.0755394846200943, -0.05301988124847412, -0.002333090640604496, -0.006288717035204172, 0.0693625882267952, -0.12618321180343628, -0.0019841014873236418, -0.025312302634119987, -0.012345356866717339, 0.07972119748592377, -0.07305017858743668], [-0.006504856515675783, 0.01693437434732914, -0.03679316118359566, -0.03178614005446434, -0.04220070689916611, -0.051831696182489395, 0.07314885407686234, 0.06504005938768387, -0.057088207453489304, 0.021264197304844856, 0.054974012076854706, -0.05341621860861778, -0.08164684474468231, 0.0738140121102333, 0.0670475959777832, 0.04414883255958557, 0.024491271004080772, 0.020625827834010124, -0.1082010567188263, 0.022095132619142532, 0.059878915548324585, -0.09501228481531143, 0.07554441690444946, -0.09346713870763779, -0.09014420956373215, -0.0011365975951775908, 0.07200318574905396, -0.024730021134018898, 0.008009473793208599, -0.02278555929660797, -0.04091271385550499, -0.01859588921070099, 0.18748584389686584, 0.14706125855445862, -0.0969872996211052, 0.15338300168514252, -0.010165306739509106, -0.006173891481012106, -0.0018558984156697989, 0.04313807934522629, 0.022718708962202072, -0.18938760459423065, 0.03609234094619751, 0.1351694017648697, -0.0412227138876915, -0.03145168349146843, 0.05294273421168327, -0.07894971966743469, 0.00820985995233059, -0.03628868609666824, 0.204472616314888, 0.010867390781641006, 0.057702500373125076, -0.09676378220319748, 0.007937218062579632, -0.050111811608076096, -0.08221586048603058, 6.614650919800624e-05, -0.042517829686403275, 0.053545162081718445, 0.14942078292369843, -0.0001737935235723853, -0.004721443634480238, -0.042924147099256516, -0.18287551403045654, 0.04724962264299393, -0.22565783560276031, -0.07807135581970215, -0.1431136578321457, 0.04359862580895424, 0.150351420044899, -0.1339539885520935, -0.02956574037671089, 0.004443397745490074, 0.023747093975543976, -0.17970478534698486, -0.03917894512414932, -0.016232026740908623, -0.04603467509150505, -0.016161372885107994, 0.0588366761803627, 0.02554662898182869, -0.02305264212191105, 0.01442673895508051, -0.013738594949245453, 0.0285903662443161, 0.06607051938772202, 0.07519835978746414, -0.003921022173017263, 0.037346821278333664, -0.03828668221831322, 0.031563322991132736, -0.07750530540943146, -0.17672260105609894, 0.06100424379110336, 0.06865053623914719, 0.06886632740497589, -0.020179420709609985, -0.00388306169770658, 0.02473517879843712, -0.14406757056713104, -0.0774640291929245, 0.07426413148641586, 0.01411811076104641, 0.0657351091504097, -0.06310062855482101, 0.0891588106751442, -0.18608707189559937, -0.029713930562138557, 0.059066515415906906, -0.11617045104503632, -0.05090566724538803, -0.0435715988278389, 0.1924380213022232, -0.08195534348487854, -0.072933629155159, 0.24078935384750366, -0.008638182654976845, -0.06256435811519623, 0.010802721604704857, -0.1451604962348938, 0.1316005438566208, -0.11427649110555649, -0.015526234172284603, 0.06224832311272621, 0.011513369157910347, -0.10005480796098709, 0.004278954118490219], [0.06188944727182388, 0.039407163858413696, -0.022584812715649605, -0.03567660599946976, 0.12419287115335464, -0.09350339323282242, -0.09010292589664459, -0.017269723117351532, -0.023973487317562103, -0.00695356959477067, -0.03245330974459648, -0.027562430128455162, 0.0055786604061722755, -0.005273904651403427, -0.015845611691474915, -0.0460471510887146, -0.1303824931383133, 0.012787609361112118, -0.042240042239427567, 0.09904493391513824, 0.03559842333197594, -0.1449151188135147, -0.0411747582256794, 0.06762445718050003, 0.13636861741542816, 0.07722216844558716, 0.03248848766088486, -0.10673802345991135, -0.0896751880645752, -0.285186231136322, -0.18839652836322784, 0.028060797601938248, 0.04176263511180878, -0.0310992281883955, 0.03735636919736862, -0.184878408908844, 0.03656669706106186, 0.02936156466603279, -0.07959795743227005, -0.1352561116218567, 0.04075805842876434, -0.12301363795995712, 0.0773642510175705, 0.0015860734274610877, -0.03166838735342026, -0.0002961113350465894, 0.0708058699965477, -0.02319362573325634, 0.06326820701360703, -0.05248792842030525, 0.0019323814194649458, 0.14527343213558197, 0.03795056417584419, -0.10000775009393692, 0.038165051490068436, 0.033609066158533096, 0.10500487685203552, 0.0012178817996755242, 0.03136618062853813, 0.03369082137942314, -0.016030237078666687, -0.07939928770065308, -0.016349250450730324, -0.08068092912435532, 0.07756073027849197, 0.000909689930267632, -0.0707012191414833, 0.009940152056515217, 0.012271304614841938, -0.0027387451846152544, -0.09992668777704239, -0.07380177825689316, 0.16615191102027893, -0.039151936769485474, 0.008064238354563713, 0.10021056234836578, -0.009905983693897724, -0.010196522809565067, 0.10322395712137222, 0.008649975061416626, 0.15430687367916107, 0.15260443091392517, 0.12086449563503265, 0.02606205828487873, -0.1732122153043747, 0.06862129271030426, 0.09833948314189911, -0.04970160871744156, -0.01782441884279251, -0.07729232311248779, 0.07647696137428284, -0.015905573964118958, -0.027861926704645157, -0.1431829035282135, 0.1205410361289978, -0.009331279434263706, -0.11443009972572327, 0.1500520259141922, 0.0012886588228866458, -0.11506983637809753, -0.0304507315158844, -0.047536078840494156, 0.10326948761940002, 0.04081585630774498, 0.05936363339424133, -0.024309411644935608, -0.03830595687031746, 0.015098636969923973, 0.06086255609989166, 0.04232674464583397, 0.06830627471208572, 0.003996915649622679, -0.05692940950393677, 0.018465645611286163, -0.021379193291068077, -0.024104369804263115, 0.1284211128950119, -0.14366091787815094, 0.01724923774600029, 0.07214845716953278, 0.03992531821131706, -0.05681804195046425, -0.04379996284842491, 0.06970333307981491, -0.19793979823589325, -0.04869402199983597, -0.11547224223613739, 0.053048163652420044], [-0.1045558825135231, -0.04192572832107544, -0.048606958240270615, -0.05640620365738869, -0.03860003873705864, -0.059552762657403946, -0.0631423145532608, 0.034522995352745056, 0.0045397537760436535, -0.017502592876553535, -0.08444195240736008, 0.06650736927986145, 0.06760362535715103, -0.02766689658164978, -0.004291698336601257, 0.04820335656404495, -0.0270412378013134, 0.08430176228284836, -0.04964127019047737, 0.028440209105610847, -0.03758073225617409, -0.1116192638874054, 0.04498536139726639, 0.0719190165400505, -0.05081602931022644, -0.00857258215546608, -0.03694286197423935, 0.14255310595035553, -0.09251979738473892, 0.0016903700307011604, 0.109853595495224, 0.07059416174888611, -0.046117719262838364, 0.13917507231235504, 0.03143025562167168, 0.0963590070605278, 0.15562774240970612, 0.0506872721016407, -0.1430625468492508, -0.12323459982872009, -0.06924150139093399, 0.10336817055940628, 0.0605660118162632, -0.027812020853161812, -0.11883670091629028, -0.07784049212932587, -0.15835340321063995, -0.06465283781290054, 0.04991699755191803, -0.025943702086806297, 0.27215492725372314, -0.05026800185441971, 0.05110904946923256, 0.06225807964801788, -0.057394642382860184, 0.008874651975929737, 0.14754356443881989, 0.14772216975688934, -0.0010301138972863555, -0.0300552137196064, 0.08911924809217453, -0.08385571837425232, 0.09329192340373993, -0.1026429608464241, 0.004268276039510965, 0.07103435695171356, 0.05040612816810608, 0.017148522660136223, 0.16325035691261292, 0.19101954996585846, -0.0203508622944355, -0.0023639698047190905, 0.04273267090320587, -0.0047446382232010365, -0.15299418568611145, -0.06343918293714523, -0.06576169282197952, -0.037773001939058304, -0.08794427663087845, 0.052576594054698944, -0.1643461436033249, -0.026466697454452515, -0.08825285732746124, 0.014713208191096783, -0.06687171757221222, 0.012423625215888023, -0.0030291560105979443, -0.0911315307021141, -0.0857156291604042, -0.024599960073828697, 0.09175083041191101, 0.16500283777713776, 0.06547122448682785, 0.0366998054087162, 0.022712567821145058, 0.06262935698032379, -0.18758513033390045, -0.04424390569329262, -0.05155852437019348, -0.010732144117355347, -0.028194162994623184, 0.02550848200917244, 0.20489726960659027, 0.020874153822660446, -0.025108037516474724, -0.009268654510378838, 0.040724292397499084, -0.02789854072034359, 0.07436957955360413, -0.0055368333123624325, -0.04229151830077171, -0.054752856492996216,